{"lstm.weight_ih_l0": [[0.045112792402505875], [-0.013932663947343826], [0.007422939408570528], [-0.007282827980816364], [-0.013489528559148312], [0.20375433564186096], [-0.09371313452720642], [0.03621172532439232], [-0.023749353364109993], [-0.052952997386455536], [-0.01822582073509693], [0.0062984926626086235], [0.08078877627849579], [0.00621989369392395], [-0.17492640018463135], [-0.0402914322912693], [-0.03372470661997795], [-0.004536139778792858], [0.0032401219941675663], [-0.234834223985672], [0.11815506219863892], [0.016695218160748482], [-0.05383071303367615], [0.03106646053493023], [0.4625156819820404], [-0.007825569249689579], [-0.0013745551696047187], [-0.02404128946363926], [-0.03151128068566322], [0.037163082510232925], [-0.022874506190419197], [0.00652763107791543], [-0.03196605667471886], [-0.02118634432554245], [-0.00511857308447361], [-0.004818588495254517], [-0.017989058047533035], [-0.02778419479727745], [-0.01264537125825882], [-0.013842557556927204], [-0.049753155559301376], [0.015221777372062206], [-0.008739415556192398], [-0.07417801767587662], [0.14536622166633606], [0.008991447277367115], [-0.1155615821480751], [-0.008180000819265842], [0.2451380044221878], [0.0051240334287285805], [-0.1035323217511177], [0.06113947182893753], [-0.015899641439318657], [0.008881418034434319], [-0.10080883651971817], [0.01637718454003334], [0.5716835260391235], [0.019510649144649506], [0.0031626680865883827], [-0.015394628047943115], [-0.07159586250782013], [-0.13194836676120758], [0.005300713703036308], [0.008027534931898117], [1.0756406784057617], [0.5473358631134033], [-0.1260155290365219], [0.5598939657211304], [-0.4406946897506714], [-1.059227466583252], [0.11659309267997742], [-0.373538613319397], [0.9068617820739746], [0.6629425883293152], [0.5271462202072144], [0.7471551895141602], [-0.540997326374054], [0.7551218867301941], [0.196213498711586], [-0.667925238609314], [-0.7473875284194946], [-0.443538099527359], [0.472928524017334], [1.2711745500564575], [0.6491612792015076], [0.37890470027923584], [-1.0064542293548584], [0.2801981568336487], [-5.289445877075195], [-0.35233089327812195], [-0.643176794052124], [0.49572890996932983], [-0.3816034197807312], [-1.3263084888458252], [-1.2794584035873413], [0.24174797534942627], [-0.024470826610922813], [-0.01698392629623413], [0.011488228105008602], [-0.01420139241963625], [-0.014295565895736217], [-0.10056179761886597], [-0.1502998173236847], [0.048785362392663956], [0.11689887195825577], [-0.0697488784790039], [-0.0420626737177372], [0.0034274638164788485], [0.10756286233663559], [0.009361665695905685], [-0.3848841190338135], [0.014023926109075546], [-0.0032303810585290194], [0.002458510920405388], [-0.07651492953300476], [-0.26791489124298096], [0.12514516711235046], [0.07187134027481079], [0.4732653498649597], [0.057195812463760376], [-0.9332189559936523], [0.02430333010852337], [0.0002591917582321912], [-0.04476957395672798], [-0.0781140998005867], [-0.055147141218185425], [-0.021783584728837013], [0.009434821084141731]], "lstm.weight_hh_l0": [[0.026776397600769997, -0.020934298634529114, 0.03154800832271576, 0.013824683614075184, -0.006170906592160463, 0.030146736651659012, 0.094946950674057, 0.11044442653656006, -0.010801510885357857, 0.09324782341718674, 0.026677267625927925, -0.11356210708618164, -0.054753825068473816, 0.05384540930390358, -0.0039007761515676975, 0.00960557535290718, -0.14887864887714386, -0.014344494789838791, -0.01745319738984108, 0.13448454439640045, -0.05915270000696182, -0.06386203318834305, 0.0030698042828589678, -0.05957718566060066, -0.0171068012714386, -0.0668766051530838, -0.02095477469265461, 0.04635944589972496, 0.08675581961870193, 0.01983959786593914, -0.051164660602808, -0.017017552629113197], [-0.02724583074450493, -0.026688916608691216, -0.010421744547784328, -0.020787924528121948, -0.009114893153309822, -0.022175908088684082, 0.05668097734451294, 0.06253808736801147, -0.0033675869926810265, 0.01544403750449419, 0.0017633010866120458, -0.051614418625831604, -0.016158660873770714, -0.008340248838067055, -0.0009287002612836659, -0.009088895283639431, -0.061821307986974716, 0.013891045935451984, -0.059941262006759644, 0.06255095452070236, -0.014700443483889103, 0.032774776220321655, 0.006914145313203335, 0.049918293952941895, 0.00017365874373354018, -0.008259323425590992, -0.00409540394321084, -0.01632728986442089, 0.010246681980788708, 0.04937135800719261, 0.0034561369102448225, -0.013329430483281612], [0.005653362721204758, 0.004442129284143448, -0.003939616959542036, 0.0053349207155406475, -0.004406629130244255, -0.004401844460517168, -0.008710182271897793, -0.012632165104150772, 0.006491389125585556, 0.008066223934292793, 0.00428273668512702, 0.027075130492448807, 0.0049949451349675655, 0.010091888718307018, -0.005834235344082117, -0.00467540742829442, -0.0022099344059824944, -0.003049721010029316, 0.004962030798196793, -0.008496754802763462, 0.006529921665787697, 0.0032670567743480206, -0.0011550439521670341, -0.004632101394236088, -0.034881748259067535, -0.001439461251720786, -0.001332386047579348, 0.00851544551551342, -0.012966480106115341, -0.02457726001739502, -0.011742983013391495, 0.001082829781807959], [-0.0045428089797496796, -0.023574505001306534, 0.011208413168787956, -0.018074888736009598, 0.00036483604344539344, 0.012477874755859375, 0.007760902866721153, 0.061866503208875656, -0.003200898878276348, 0.01708383485674858, 0.005873990245163441, -0.02345328964293003, -0.004883346147835255, 0.013443569652736187, 0.007041809614747763, 0.025130530819296837, -0.025527816265821457, -0.0025076977908611298, -0.022893862798810005, 0.02486543357372284, -0.004990371875464916, -0.0074294754303991795, 0.005665305536240339, -0.0236152745783329, -0.01915949024260044, -0.009666971862316132, -0.0031117312610149384, 0.008556497283279896, 0.011716091074049473, 0.01755453832447529, -0.009110753424465656, -0.0034690413158386946], [0.0015078559517860413, -0.04767657443881035, 0.007836736738681793, -0.015645289793610573, 0.006237350404262543, -0.07816097885370255, 0.10812579095363617, 0.038027018308639526, 0.012798374518752098, 0.026871414855122566, 0.0020468884613364935, -0.08386621624231339, -0.055871330201625824, 0.011204203590750694, -0.035830944776535034, -0.03338238224387169, -0.14109955728054047, -0.012689097784459591, 0.010994507931172848, 0.09938325732946396, -0.014311353676021099, -0.04499910771846771, -0.028236720710992813, 0.039427708834409714, -0.03625669330358505, -0.04218914732336998, -0.0047755734995007515, 0.0432453379034996, 0.027875768020749092, 0.03270145133137703, -0.017062241211533546, -0.0026887361891567707], [0.039820536971092224, -0.01787082850933075, 0.003439998021349311, -0.02117770165205002, 0.014210186898708344, -0.015733258798718452, -0.10732092708349228, 0.09982413053512573, -0.003257900709286332, 0.028754187747836113, 0.061505962163209915, -0.07101698964834213, -0.07714641094207764, 0.09627354145050049, 0.06952235847711563, 0.002764488570392132, 0.005081212148070335, -0.00832168199121952, -0.03603256866335869, -0.0058376421220600605, 0.004647157154977322, -0.02780119515955448, -0.026377655565738678, -0.09946288913488388, -0.13413755595684052, 0.001223584869876504, 0.00874236412346363, 0.054544638842344284, -0.09837502241134644, 0.012768050655722618, -0.01725360006093979, 0.004090418573468924], [-0.10348725318908691, -0.11086432635784149, 0.04926631599664688, -0.2370893806219101, 0.16078291833400726, 0.08789080381393433, -0.04013986885547638, 0.22105932235717773, -0.21021150052547455, -0.27553075551986694, -0.11408820748329163, -0.21896985173225403, 0.13287773728370667, -0.242327019572258, -0.052639879286289215, 0.06523868441581726, 0.10641392320394516, 0.12766222655773163, -0.16506436467170715, -0.06259127706289291, -0.04782374948263168, -0.041327305138111115, 0.07357064634561539, -0.1056031659245491, 0.33491531014442444, 0.047341521829366684, 0.06349997967481613, -0.20100151002407074, 0.058047257363796234, 0.3768950402736664, 0.16239920258522034, -0.16730625927448273], [-0.020598378032445908, -0.019594918936491013, 0.025853289291262627, -0.005366966128349304, -0.006548239849507809, 0.0805741548538208, 0.028025738894939423, -0.014888100326061249, -0.0007154835620895028, 0.05459025874733925, 0.016061607748270035, -0.06635668128728867, -0.024331875145435333, 0.033356864005327225, 0.04400920122861862, -0.0011923715937882662, -0.033251188695430756, -0.007050918880850077, -0.042337480932474136, 0.02463093027472496, -0.0658358633518219, -0.025342917069792747, 0.012982135638594627, 0.024741608649492264, -0.016685159876942635, -0.03181816637516022, -0.0029371888376772404, 0.020269883796572685, 0.07300592958927155, 0.04235141724348068, 0.0009308246080763638, -0.014231588691473007], [-0.0021093119867146015, -0.10641893744468689, 0.08849353343248367, -0.02880721539258957, 0.04518476128578186, 0.008726420812308788, 0.10139432549476624, 0.18611280620098114, -0.04192955791950226, 0.04384322464466095, -0.01296308171004057, -0.19256779551506042, -0.04032360762357712, -0.013308282010257244, -0.03912174329161644, 0.01948247291147709, -0.04507877677679062, -0.0026469004806131124, -0.0896381288766861, 0.1039021760225296, -0.04767519608139992, -0.051347244530916214, 0.010416948236525059, -0.0661725178360939, -0.029433146119117737, -0.032921697944402695, 0.0025483001954853535, 0.036921426653862, 0.07866960018873215, 0.14425800740718842, 0.019046591594815254, -0.041880473494529724], [-0.04813271760940552, -0.10300235450267792, 0.05811985582113266, -0.11016018688678741, 0.038762204349040985, 0.04315263777971268, 0.15166284143924713, 0.20734421908855438, -0.0987563356757164, 0.056355223059654236, -0.009237479418516159, -0.22136583924293518, -0.1029018834233284, 0.06736763566732407, -0.06364989280700684, 0.019893934950232506, -0.11771541833877563, 0.02047457918524742, -0.10285279154777527, 0.1625678837299347, -0.061629269272089005, -0.14497649669647217, 0.06784418970346451, -0.0772382915019989, 0.05063863471150398, -0.043290670961141586, -0.01588183455169201, 0.03568001464009285, 0.04051120579242706, 0.19730530679225922, -0.0697828084230423, -0.04306855797767639], [-0.024957353249192238, -0.009784567169845104, 0.02186230756342411, 0.00028964490047656, 0.0017061687540262938, 0.01303685549646616, 0.048110734671354294, 0.06173258647322655, -0.005933900363743305, 0.012140977196395397, -0.0035522114485502243, -0.08553662896156311, -0.0023434183094650507, 0.02257164567708969, -0.02510463446378708, -0.0034834425896406174, -0.04343942180275917, -0.007555123884230852, -0.01918315701186657, 0.08301328122615814, -0.04665916785597801, -0.024545451626181602, 0.0019540097564458847, -0.029856229200959206, -0.018749061971902847, -0.03357963263988495, -0.007890189997851849, 0.002219877438619733, 0.02536008693277836, 0.026775745674967766, -0.031502172350883484, -0.005435271188616753], [0.014142517000436783, 0.014372815378010273, 0.054745081812143326, -0.004592984914779663, 0.005678548011928797, -0.1347944289445877, 0.0944734513759613, 0.0273557361215353, 0.06211118772625923, 0.15674763917922974, 0.08459462970495224, -0.03965156152844429, -0.16066031157970428, 0.14030267298221588, -0.1706724911928177, -0.0682273730635643, -0.18675172328948975, -0.040753379464149475, -0.04662882909178734, 0.13143323361873627, -0.10520683974027634, -0.02613522671163082, -0.04214278608560562, -0.08985326439142227, -0.3586856722831726, -0.10248832404613495, -0.014793584123253822, 0.0860004797577858, 0.05639459565281868, -0.1152077168226242, -0.11813082545995712, 0.005108483135700226], [-0.010649398900568485, -0.08082763850688934, -0.019021326676011086, -0.013728671707212925, 0.0803748369216919, 0.048675455152988434, 0.10309993475675583, 0.24595539271831512, 0.02261451445519924, 0.10652902722358704, -0.025910744443535805, -0.25666114687919617, 0.03078577294945717, 0.011632670648396015, -0.07198876887559891, -0.0014996436657384038, -0.08427897840738297, 0.028700372204184532, -0.06461450457572937, 0.06256446987390518, -0.04650811105966568, -0.07524724304676056, 0.02570619434118271, -0.13306793570518494, 0.0429510734975338, 0.04624336585402489, -0.005063098389655352, -0.018234414979815483, 0.06164016202092171, 0.16881795227527618, -0.004892424214631319, -0.04500294104218483], [-0.021426979452371597, -0.018562354147434235, 0.01439033355563879, -0.007319512311369181, -0.003555797738954425, 0.032115478068590164, 0.03439701348543167, 0.04192586615681648, -0.013127602636814117, 0.04151403531432152, 0.017254270613193512, -0.05428206920623779, -0.026671722531318665, 0.027214260771870613, 0.03464774787425995, 0.0045070163905620575, -0.03418009355664253, -0.002643542131409049, -0.005383674055337906, 0.031367577612400055, -0.05169710889458656, -0.024462865665555, 0.03608737885951996, -0.023158332332968712, 0.039954014122486115, -0.02597389742732048, 0.0009259607177227736, 0.02030334249138832, 0.03931485116481781, 0.04331690073013306, -0.016396988183259964, -0.005915286019444466], [-0.003787768306210637, -0.06865304708480835, 0.05824942886829376, -0.06300236284732819, 0.0409858264029026, -0.11079242825508118, 0.1608959585428238, 0.16810497641563416, -0.0029317920561879873, 0.0387222096323967, 0.005950735416263342, -0.10921157896518707, -0.1148066371679306, -0.038126032799482346, -0.13697491586208344, -0.037963755428791046, -0.2186986654996872, 0.0031895097345113754, -0.07469062507152557, 0.31355562806129456, -0.09342125058174133, -0.04984329268336296, -0.006980995647609234, -0.12030492722988129, -0.0404488630592823, -0.05543617159128189, -0.0001416205195710063, 0.010820540599524975, 0.12282177805900574, 0.10596662014722824, -0.04317650571465492, -0.018344057723879814], [0.01779666729271412, -0.09321364760398865, 0.022191917523741722, -0.11475852876901627, 0.04588557034730911, -0.1339697390794754, 0.05406028404831886, 0.10530916601419449, -0.08795146644115448, -0.02341383509337902, -0.019177904352545738, -0.08263703435659409, -0.054866012185811996, -0.023215865716338158, -0.09991107136011124, 0.013306807726621628, -0.10186602920293808, -0.014153467491269112, -0.12076379358768463, 0.14033764600753784, 0.006680254824459553, -0.05957544222474098, -0.04775232821702957, -0.04268558695912361, -0.0651291012763977, -0.011302771978080273, 0.017705045640468597, -0.01700202375650406, 0.015912316739559174, 0.07136563956737518, -0.001613209373317659, -0.00044259196147322655], [-0.04300786182284355, -0.01317575853317976, -0.01254595723003149, -0.09806821495294571, 0.07072275131940842, -0.10196998715400696, 0.1328994631767273, 0.1103704646229744, -0.028656767681241035, -0.09900018572807312, -0.08377638459205627, -0.01126441266387701, 0.03669946268200874, -0.2220248579978943, -0.1279531866312027, 0.04276474565267563, -0.18411484360694885, 0.03342791646718979, -0.12704406678676605, 0.09693262726068497, -0.005667227320373058, 0.04340897127985954, 0.04171887785196304, -0.18384264409542084, 0.27948668599128723, 0.07038024067878723, 0.060266029089689255, -0.07563422620296478, 0.09642761945724487, 0.19805504381656647, 0.1833249181509018, 0.004987689200788736], [0.001514086383394897, -0.003128043143078685, 0.004299857188016176, 0.004251867067068815, 0.0013631044421344995, -0.007708150427788496, 0.020074328407645226, -0.0027166784275323153, 0.006356025580316782, 0.009712130762636662, 0.0017104099970310926, -0.02336272969841957, -0.012938243336975574, 0.0038831070996820927, -0.003745471592992544, -0.0034031998366117477, -0.023436816409230232, -0.001948990044184029, -0.006598098203539848, 0.0431300513446331, -0.003356404136866331, -0.003518326673656702, -0.007246001623570919, -0.005214110482484102, -0.014857887290418148, -0.007168021984398365, -0.002134147798642516, 0.00041856462485156953, 0.007403004448860884, 0.01098577305674553, -0.00803803838789463, -0.001131253782659769], [0.004589813761413097, -0.04381055012345314, 0.07793066650629044, -0.10069799423217773, 0.01173342578113079, -0.10895006358623505, 0.09489487111568451, 0.07363549619913101, 0.03176511079072952, 0.07046081870794296, 0.004496715497225523, 0.05405078083276749, 0.05314785987138748, 0.035562142729759216, -0.03217382729053497, -0.014520612545311451, -0.16354314982891083, -0.03659602254629135, -0.02174186147749424, 0.10791442543268204, -0.011126790195703506, -0.09369458258152008, 0.06841179728507996, -0.09556025266647339, -0.09149491041898727, 0.0007066847756505013, 0.004872125107795, 0.07770068198442459, -0.019782481715083122, -0.031262028962373734, 0.002331201219931245, 0.0075537655502557755], [-0.1790907382965088, -0.15006007254123688, 0.04577700048685074, -0.16568522155284882, 0.03233085200190544, 0.2614540457725525, 0.21499685943126678, 0.28558817505836487, -0.15358911454677582, 0.08163807541131973, -0.03244371712207794, -0.01691213622689247, -0.06290331482887268, -0.1166081503033638, 0.16078145802021027, 0.043845973908901215, -0.0595274455845356, 0.07724156975746155, -0.043276622891426086, 0.060251690447330475, -0.0410943403840065, -0.06969890743494034, 0.19659116864204407, -0.17978762090206146, 0.5656197667121887, -0.029989173635840416, 0.041060276329517365, 0.028645016252994537, 0.3146483302116394, 0.2896791100502014, 0.1532367318868637, -0.06055478751659393], [0.035977959632873535, 0.0017823842354118824, 0.031072458252310753, 0.013549886643886566, -0.030116191133856773, 0.05509739741683006, -0.11447317153215408, 0.036031972616910934, 0.04786137863993645, 0.17235805094242096, 0.1041615679860115, 0.010978132486343384, -0.10432975739240646, 0.240861177444458, 0.10219649970531464, -0.0595797561109066, 0.05049217492341995, -0.04115112125873566, 0.004159493371844292, -0.14093336462974548, -0.04676433280110359, -0.016390852630138397, -0.022629523649811745, -0.04195646941661835, -0.5884108543395996, -0.06576338410377502, -0.03301996737718582, 0.10041721910238266, -0.0048073288053274155, -0.1194181814789772, -0.17217184603214264, 0.0025428151711821556], [-0.003214266849681735, 0.007917257957160473, -0.004827327560633421, 0.00517346290871501, -0.0051093692891299725, 0.013323336839675903, -0.008831472136080265, 0.012026420794427395, 0.00464293360710144, 0.0004812906845472753, 0.007185906171798706, 0.007654593791812658, 0.0011928831227123737, 0.019404252991080284, -0.0026856937911361456, -0.013236891478300095, 0.009310961700975895, -0.00644293799996376, -0.005512977950274944, -0.032007452100515366, 0.0008206579950638115, 0.0027484167367219925, 0.006476204376667738, 0.00446710642427206, -0.017809119075536728, -0.004491760861128569, -0.0025520671624690294, 0.004229580517858267, -0.008342942222952843, -0.010513173416256905, -0.011897366493940353, 0.0038432597648352385], [-0.09363801777362823, -0.07416141778230667, 0.0415116511285305, -0.04382149875164032, 0.007230372633785009, 0.17004424333572388, -0.01214440818876028, 0.11152982711791992, -0.13418403267860413, 0.04816340282559395, 0.01353542786091566, -0.1343926638364792, -0.008108165115118027, 0.04236689582467079, 0.12392427027225494, 0.11266361176967621, 0.05926365405321121, 0.0041379244066774845, -0.01369540300220251, -0.01422429271042347, -0.03336532786488533, -0.13818489015102386, 0.0987217128276825, -0.05391272157430649, 0.2846899628639221, -0.020930811762809753, -0.005455010570585728, 0.02744574472308159, 0.041531000286340714, 0.12040168792009354, 0.022755522280931473, -0.02382626384496689], [0.007081745658069849, 0.0030106708873063326, -3.775711957132444e-05, 0.0037881231401115656, -0.004756581969559193, 0.003552369773387909, 0.011003915220499039, -0.024870090186595917, 0.015434542670845985, 0.01274238433688879, 0.00542677054181695, -0.0020803611259907484, -0.009208091534674168, -0.002230698009952903, 0.015750521793961525, -0.008504669182002544, -0.03483881428837776, -0.0021236108150333166, -0.014345976524055004, 0.006827342789620161, -0.0014464956475421786, -0.0031759855337440968, -0.003483842359855771, 0.0016215720679610968, -0.026568826287984848, -0.00273442966863513, -0.0011545782908797264, 0.008196132257580757, 0.027528101578354836, 0.011034575290977955, 0.0009445742471143603, -0.0009190089767798781], [-0.05038509890437126, -0.1509794294834137, 0.16244257986545563, -0.12282590568065643, 0.025994621217250824, 0.051700249314308167, 0.28325384855270386, 0.4381627142429352, 0.03677424043416977, 0.3744933605194092, 0.14242491126060486, -0.42011788487434387, -0.3396104574203491, 0.29490265250205994, -0.07859828323125839, -0.09120149910449982, -0.47337138652801514, -0.01945723220705986, -0.1316787153482437, 0.580701470375061, -0.38516199588775635, -0.19033586978912354, 0.0048523712903261185, -0.2716619372367859, -0.5491800904273987, -0.27712443470954895, -0.008808150887489319, 0.20797015726566315, 0.3515232503414154, 0.25793910026550293, -0.19560743868350983, -0.049314115196466446], [0.008408364839851856, -0.0030798600055277348, -0.002246456453576684, 0.0004451352288015187, -0.0066343992948532104, -0.010642828419804573, 0.01589147374033928, 0.017279092222452164, 0.002194848610088229, 0.027705010026693344, 0.008072642609477043, 0.04192373901605606, -0.010057968087494373, 0.015245568938553333, -0.003010509070008993, -0.0059636435471475124, -0.024905366823077202, -0.0008031486649997532, 0.008169780485332012, 0.02588818408548832, 0.021451955661177635, -0.0020660224836319685, 0.007035364862531424, -0.02575891651213169, -0.0011768850963562727, -0.004196803085505962, -0.0015160462353378534, 0.021415846422314644, -0.0028039917815476656, -0.015221510082483292, -0.02320527471601963, 0.0030280095525085926], [-0.003770093433558941, -0.010267402045428753, 0.007964394055306911, -0.009113341569900513, 0.0037040486931800842, -0.006640997715294361, 0.014242111705243587, 0.007878819480538368, 0.01656930334866047, 0.015355659648776054, 0.004453648813068867, -0.026809997856616974, -0.016577063128352165, 0.007888367399573326, -0.012584184296429157, 0.0019370648078620434, -0.019824309274554253, -0.0012377956882119179, -0.01405198872089386, 0.025515584275126457, -0.003088859375566244, -0.009813480079174042, -0.01824657991528511, -0.013718782924115658, -0.006861444562673569, -0.008924148976802826, -0.0015830742195248604, 0.0070814406499266624, 0.01153514813631773, 0.020371435210108757, -0.010511831380426884, -0.002043764805421233], [-0.01859333924949169, -0.0072523751296103, 0.006976931821554899, 0.002208610298112035, -0.006156537216156721, 0.023212287575006485, 0.019826579838991165, 0.025272997096180916, -0.0064162700437009335, 0.024784719571471214, 0.005085126031190157, -0.008538641035556793, -0.014974216930568218, 0.019809169694781303, 0.006087367422878742, 0.002638553734868765, -0.007670854218304157, -0.0021154601126909256, 0.006405818276107311, 0.014913283288478851, -0.006851560901850462, -0.013375132344663143, 0.022116338834166527, 0.0053131417371332645, 0.026630926877260208, -0.015541531145572662, -0.0031984522938728333, 0.011087394319474697, 0.009029819630086422, 0.0028844154439866543, -0.01764148287475109, -0.0036884986329823732], [-0.06573569029569626, -0.056027743965387344, 0.028563957661390305, -0.04019025340676308, 0.012322681955993176, 0.12484240531921387, -0.02642202377319336, 0.068972148001194, -0.0699320062994957, 0.058537039905786514, 0.031482942402362823, -0.112586110830307, -0.011835764162242413, 0.0345245897769928, 0.132066011428833, 0.05395886301994324, 0.07310973852872849, 0.0169583298265934, -0.02306075394153595, -0.13104607164859772, -0.10128255933523178, -0.06251522153615952, 0.11082404851913452, -0.06427808851003647, 0.2598177492618561, -0.015291756950318813, 0.022872401401400566, 0.03517353907227516, 0.0634721890091896, 0.1359584927558899, 0.08275295794010162, -0.025011925026774406], [0.006846482865512371, -0.014250053092837334, 0.03220905736088753, -0.034375280141830444, 0.015853818506002426, -0.015246712602674961, 0.07025505602359772, 0.11841193586587906, 0.036750536412000656, 0.08586138486862183, 0.03064541704952717, -0.08342568576335907, -0.09160799533128738, 0.045589741319417953, -0.07329314947128296, -0.04498888552188873, -0.11438482254743576, -0.017703896388411522, -0.06325557827949524, 0.06041311100125313, -0.07444807887077332, -0.01001498568803072, -0.0015640966594219208, -0.09144806861877441, -0.1905965954065323, -0.046120308339595795, -0.006421924103051424, 0.0426502525806427, 0.09147273749113083, 0.04267766326665878, -0.04745274409651756, -0.0010693472577258945], [-0.014834735542535782, -0.06682363152503967, 0.03237220644950867, -0.05911900848150253, 0.0031865087803453207, 0.04529043287038803, 0.07322187721729279, 0.15640565752983093, -0.04164017364382744, 0.11079845577478409, 0.04418381676077843, -0.05232355371117592, -0.09218022227287292, 0.03584003448486328, 0.1092209666967392, 0.0068692415952682495, -0.07502482831478119, 0.017686637118458748, -0.02823147177696228, 0.07349405437707901, -0.0331960991024971, -0.05407137796282768, 0.08950173854827881, -0.13193610310554504, 0.09070894122123718, -0.03240933641791344, 0.00697545800358057, 0.07204000651836395, 0.12193130701780319, 0.11333942413330078, -0.008297952823340893, -0.009738857857882977], [0.00044690430513583124, -0.005917257163673639, -0.0001965885458048433, -0.005947773810476065, -0.0002776496985461563, 0.00699347211048007, -0.004720370750874281, 0.016118934378027916, -0.006087050773203373, 0.008926686830818653, 0.002463430166244507, 0.006550812628120184, -0.005599289666861296, 0.00018974466365762055, 0.01959475874900818, -0.0009043572354130447, 0.0038915297482162714, 0.003385018790140748, 0.0008187491330318153, 0.0024078446440398693, 0.005608855281025171, -0.0034939914476126432, 0.006740991957485676, -0.015476769767701626, 0.012730064801871777, 0.003916272893548012, -2.7477384719531983e-05, 0.006132412701845169, -0.002986208302900195, 0.013956060633063316, -0.0024429757613688707, 0.0009268881403841078], [0.014443599618971348, -0.019359037280082703, 0.007183501496911049, -0.046495381742715836, -0.01884254813194275, 0.031842563301324844, 0.061431657522916794, 0.06540816277265549, 0.012544790282845497, 0.014836059883236885, -0.0033386200666427612, -0.0604703426361084, -0.05157538130879402, -0.01010612677782774, 0.021803507581353188, 0.01907903328537941, -0.010191330686211586, -0.00972418300807476, 0.03000250644981861, 0.0555531345307827, 0.013646075502038002, 0.0068771252408623695, 0.0455709807574749, -0.08483126014471054, 0.03393750265240669, -0.002723678248003125, 0.0028057685121893883, 0.01025293581187725, 0.05676354467868805, 0.01779976114630699, 0.021481964737176895, -0.0009761808323673904], [-0.024916762486100197, -0.002693783724680543, 0.014472134411334991, 0.09544632583856583, -0.02608454041182995, -0.002513070357963443, 0.05399011820554733, 0.010914296843111515, 0.07567419111728668, 0.04555288702249527, -0.005235770717263222, -0.06058415770530701, -0.033077891916036606, -0.0021349999587982893, 0.00537992175668478, -0.026969246566295624, -0.020767737179994583, -0.014728978276252747, 0.01514697726815939, 0.050435908138751984, 0.004446480888873339, 0.06675246357917786, -0.045858170837163925, 0.08187031745910645, -0.0021553917322307825, -0.0002229557721875608, 0.004536565393209457, 0.02242482453584671, 0.02763143554329872, -0.07175204157829285, -0.004643332213163376, -0.0030782411340624094], [-0.0011396972695365548, 0.0001051000363077037, -0.002801347291097045, 0.0034649658482521772, -0.002587534487247467, 0.003717040177434683, -0.003630600869655609, -0.010529719293117523, -0.0006698226206935942, 0.006262240465730429, -0.0003582920762710273, 0.019177637994289398, -0.00253663444891572, 0.0012723598629236221, 0.003665393451228738, 0.0021251195576041937, 0.0021818492095917463, 0.00046536209993064404, 0.00542397890239954, -0.009750794619321823, 7.86859163781628e-05, 0.0010740031721070409, 0.004525207448750734, 0.0012717073550447822, 0.0020045882556587458, 0.0009397086687386036, 0.0016488395631313324, 0.002839404856786132, -0.003860460827127099, -0.007104285527020693, 0.0020229751244187355, -0.0013144353870302439], [-0.017311757430434227, -0.0023149200715124607, 0.0014915938954800367, 0.02792957052588463, 0.0033292544540017843, 0.020400533452630043, -0.0057455068454146385, -0.04581594094634056, 0.0047136577777564526, -0.00015857323887757957, 0.002236679894849658, 0.014361143112182617, 0.012536251917481422, 0.0038055037148296833, 0.022376086562871933, 0.04900889843702316, 0.006496865302324295, -0.00241341651417315, -0.011594519950449467, -0.021057656034827232, 0.0030839703977108, -0.031041761860251427, 0.0102762496098876, -0.02082582749426365, 0.004216556902974844, 0.001511134090833366, 0.0015734402695670724, 0.010558799840509892, 0.006925099529325962, 0.006956852041184902, 0.008185502141714096, -0.0022498054895550013], [-0.011104946956038475, 0.03805532306432724, 0.01741381548345089, -0.004478336311876774, -0.0014411426382139325, -0.06896013766527176, 0.10684258490800858, 0.07636484503746033, 0.006108236964792013, -0.02709045261144638, -0.01217926386743784, -0.05157431215047836, -0.005015816073864698, 0.022457409650087357, -0.008399231359362602, -0.04269900545477867, -0.06400194019079208, -0.03875698521733284, -0.03279434144496918, 0.060461390763521194, -0.0001641123235458508, -0.04902760311961174, 0.016572847962379456, 0.056504908949136734, 0.007297108881175518, -0.004248654469847679, 0.002964792074635625, -0.01621055416762829, -0.041217122226953506, 0.0580969862639904, -0.0068711633794009686, -0.006127113942056894], [0.006146447267383337, 0.025057796388864517, -0.028737185522913933, 0.04691039398312569, -0.0013978368369862437, -0.0378800593316555, 0.01727737858891487, -0.059287115931510925, 0.04903586953878403, -0.03750305622816086, -0.00021983045735396445, 0.0013159459922462702, 0.002936344128102064, 0.0010572167811915278, -0.038341816514730453, 0.008451464585959911, -0.04851248487830162, -0.01639334112405777, 0.025700535625219345, 0.024450888857245445, 0.057844921946525574, 0.04194626212120056, -0.067792609333992, 0.04955216869711876, -0.005261075682938099, 0.0029084505513310432, -0.005054715555161238, 0.0029298183508217335, -0.017841175198554993, -0.1381497085094452, -0.011610697023570538, 0.01282950583845377], [-0.05880734696984291, -0.06582480669021606, 0.03566945344209671, -0.033060260117053986, 0.040458980947732925, 0.21067163348197937, -0.06042444333434105, 0.1985117346048355, -0.09721121937036514, -0.2306026965379715, -0.03259352222084999, -0.2381679117679596, 0.05623150244355202, -0.0330192856490612, 0.004362771287560463, -0.01598605513572693, 0.0440865084528923, 0.06871125847101212, -0.05641019716858864, -0.006781536620110273, -0.06487403064966202, -0.12006811797618866, 0.11623774468898773, 0.06042972952127457, -0.05791804566979408, 0.07439827173948288, -0.0032294364646077156, -0.22909417748451233, -0.056201107800006866, 0.003040258539840579, -0.00254164170473814, -0.16155947744846344], [-0.023564960807561874, -6.266825221246108e-05, 0.02317092753946781, 0.017921626567840576, -0.015190492384135723, 0.07495047152042389, 0.05179169028997421, -0.04868711158633232, -0.01814972050487995, 0.04368021339178085, 0.017293432727456093, -0.016443729400634766, -0.01325541827827692, 0.023941688239574432, 0.06419669091701508, 0.018211673945188522, -0.035632357001304626, 0.003106752410531044, -0.01695367321372032, 0.03420787677168846, -0.0533001609146595, -0.032794639468193054, 0.0689023956656456, 0.022099552676081657, 0.012357546016573906, -0.027071064338088036, 5.651732499245554e-05, 0.03090015798807144, 0.07573431730270386, 0.04450523853302002, 0.010260717943310738, -0.015745537355542183], [-0.048766154795885086, -0.05600670352578163, 0.012349779717624187, 0.0748625099658966, 0.0046050273813307285, 0.04901639372110367, 0.13333815336227417, -0.06532727926969528, -0.1146431565284729, -0.0929865762591362, -0.018208203837275505, -0.07706769555807114, 0.037018220871686935, -0.06475817412137985, 0.03777187690138817, 0.019761156290769577, 0.011210889555513859, 0.036676280200481415, -0.11251931637525558, 0.1382594108581543, -0.0026539312675595284, 0.023038722574710846, -0.019986294209957123, -0.12614291906356812, -0.03015856072306633, 0.02860807254910469, 0.043005961924791336, -0.03157571703195572, -0.010992547497153282, 0.08306027948856354, 0.02807401865720749, 0.005787444766610861], [-0.05494213476777077, -0.05157787352800369, 0.04011419042944908, 0.02419408969581127, 0.0468103401362896, 0.14064331352710724, 0.13915033638477325, 0.03299734368920326, -0.015943339094519615, 0.055214714258909225, -0.10013885051012039, -0.25164085626602173, 0.12296010553836823, 0.00965407956391573, 0.012053413316607475, 0.003898421535268426, -0.019510319456458092, -0.04191272705793381, -0.0504307895898819, 0.15349841117858887, 0.004670492839068174, -0.19173596799373627, 0.1259550005197525, 0.06441500782966614, 0.20554779469966888, -0.033498797565698624, -0.009547311812639236, -0.09410678595304489, 0.022562580183148384, 0.05510065704584122, -0.022302476689219475, -0.012886768206954002], [-0.002170590218156576, -0.0051799351349473, 0.00926760584115982, -0.0037328870967030525, 0.00271128723397851, 0.06273624300956726, 0.019719332456588745, 0.002752479165792465, -0.009309993125498295, -0.013670554384589195, -0.003374745137989521, -0.03044474497437477, 0.01095360703766346, 0.013995766639709473, -0.018019266426563263, -0.006692725233733654, -0.006313857156783342, -0.006029295269399881, -0.000963440805207938, -0.003522398415952921, 0.00643161591142416, -0.012094012461602688, 0.027096081525087357, 0.006837090943008661, 0.015735695138573647, -0.003470658790320158, -0.004861264489591122, 0.014253348112106323, -0.014928195625543594, 0.019475631415843964, -0.02444542571902275, 2.1101175661897287e-05], [-0.0035927938297390938, 0.05246857553720474, 0.04618748649954796, 0.06006750836968422, 0.024090686812996864, -0.20512764155864716, 0.1524585634469986, -0.167267844080925, 0.040930431336164474, -0.03389589115977287, -0.010901017114520073, -0.018728286027908325, -0.06254486739635468, -0.0023301909677684307, -0.35097968578338623, -0.00926931295543909, -0.20253418385982513, -0.023152466863393784, 0.014555673114955425, 0.09932103008031845, -0.16047294437885284, 0.016633491963148117, -0.06310846656560898, 0.10665102303028107, -0.11685635149478912, -0.09829191118478775, 0.025929728522896767, -0.032068390399217606, 0.03689928352832794, -0.14350780844688416, -0.018802423030138016, 0.027268249541521072], [-0.07727645337581635, 0.03937912732362747, 0.09773993492126465, -0.049936458468437195, -0.015997711569070816, 0.05395328626036644, 0.10833769291639328, 0.006881101056933403, -0.08907848596572876, -0.12584605813026428, 0.02609913796186447, -0.24276740849018097, -0.10374512523412704, -0.10733385384082794, -0.001919737784191966, -0.025804568082094193, 0.13163742423057556, -0.03538276255130768, -0.0568147748708725, 0.09435176104307175, -0.08348676562309265, -0.13546031713485718, 0.022321021184325218, 0.12023389339447021, 0.04152585566043854, 0.048506058752536774, 0.01907484605908394, -0.033686358481645584, -0.10226914286613464, 0.15659308433532715, -0.034638285636901855, -0.10793612152338028], [-0.02919863536953926, -0.004339827690273523, 0.00722962012514472, 0.009705794975161552, -0.00964285433292389, 0.04547528550028801, 0.010613932274281979, -0.023818083107471466, -0.003511986928060651, 0.02034655213356018, 0.01586028002202511, -0.020315835252404213, 0.004344191402196884, 0.027300439774990082, 0.0021562057081609964, -0.00013990377192385495, -0.0018673321465030313, -0.0030941427685320377, 0.0076067885383963585, -0.038436926901340485, -0.029446357861161232, -0.012030749581754208, 0.020724007859826088, 0.029724931344389915, 0.04226484149694443, -0.01905228942632675, 0.0011012821923941374, 0.010488911531865597, 0.02138688415288925, 0.009120410308241844, -0.01259238924831152, -0.003916406072676182], [-0.015522939153015614, 0.017913756892085075, 0.04229447618126869, -0.0155711080878973, 0.05180914327502251, -0.06083610653877258, 0.0715201124548912, -0.008952471427619457, 0.05857570469379425, -0.05828987434506416, -0.0527113601565361, -0.041097138077020645, 0.005974082741886377, -0.06506913900375366, -0.26520419120788574, -0.05532354861497879, -0.12505634129047394, -0.021560801193118095, -0.083014577627182, 0.08800815045833588, -0.12124767899513245, 0.005033900495618582, -0.03503018245100975, 0.03144262731075287, -0.2059907168149948, -0.02892453409731388, 0.015187348239123821, -0.07421906292438507, 0.007721997331827879, -0.04692801833152771, 0.012678195722401142, -0.013240422122180462], [0.0939946100115776, -0.032107070088386536, 0.059168215841054916, -0.003908162470906973, 0.06455745548009872, -0.10413021594285965, 0.024598807096481323, 0.16259360313415527, -0.0028097829781472683, -0.038141004741191864, -0.04291767254471779, -0.09902732074260712, 0.04553409293293953, -0.01195842120796442, -0.014429816044867039, 0.08265820890665054, -0.09831552952528, -0.030605925247073174, -0.09791214764118195, -0.0016648240853101015, 0.0036137187853455544, -0.08488599956035614, -0.07859620451927185, 0.027723636478185654, -0.06230451911687851, 0.03340883553028107, 0.05344511941075325, -0.07187594473361969, 0.051113296300172806, 0.13822241127490997, 0.052237045019865036, 0.024877212941646576], [0.03296586871147156, 0.030863981693983078, -0.0018654937157407403, -0.055567968636751175, 0.030109988525509834, -0.0911422148346901, -0.09823556244373322, 0.056736357510089874, 0.022117791697382927, -0.055074770003557205, 0.0035219057463109493, -0.11747702956199646, 0.0329318642616272, -0.018761910498142242, 0.00943075492978096, -0.049536529928445816, 0.018609263002872467, -0.019801851361989975, -0.11900588870048523, -0.12194304913282394, -0.09147666394710541, 0.07127342373132706, -0.020026519894599915, -0.11635395139455795, -0.29508814215660095, 0.04779951646924019, 0.008024784736335278, -0.048790838569402695, 0.015998659655451775, 0.0312601737678051, 0.029225973412394524, 0.014667930081486702], [0.0005431777681224048, -0.002824427792802453, 0.002126577775925398, -0.004050756338983774, 0.0005624584155157208, -0.006926334463059902, 0.018848855048418045, 0.01138239074498415, 0.0075603146106004715, -0.013850823044776917, -0.0019581918604671955, -0.01627790741622448, 0.008616073057055473, -0.005152030382305384, -0.0044235363602638245, -0.0007631191983819008, -0.016393236815929413, -0.0006321241380646825, -0.01053722482174635, 0.023113325238227844, -0.0011871850583702326, 0.0029280204325914383, -0.003912380896508694, -0.01563860848546028, -0.0020567546598613262, 0.0005668258527293801, 0.0006241375231184065, -0.00999746285378933, 0.0030706310644745827, 0.020442461594939232, 0.0016423286870121956, -0.0015658808406442404], [-0.08233816176652908, -0.11515181511640549, 0.09673376381397247, 0.08226268738508224, -0.06797068566083908, -0.16981685161590576, 0.12469754368066788, -0.07587438821792603, 0.07675515115261078, 0.0573866069316864, 0.06183856353163719, -0.0643954873085022, 0.0008330850978381932, -0.02608211152255535, -0.034898653626441956, 0.08800841122865677, -0.0624186173081398, -0.04018136486411095, -0.12977334856987, 0.10462047904729843, 0.04662080854177475, -0.08994156122207642, 0.029926128685474396, -0.11189873516559601, -0.09202104061841965, 0.022129029035568237, -0.024557575583457947, 0.09326434135437012, 0.07713905721902847, 0.044588375836610794, -0.0062023974023759365, 0.03010772354900837], [-0.11144807189702988, -0.04573376849293709, 0.046872012317180634, -0.038165584206581116, -0.017687924206256866, 0.31749212741851807, 0.2551896572113037, 0.054517712444067, -0.07207784801721573, 0.05934963747859001, -0.04214494675397873, -0.09941543638706207, 0.0017091893823817372, -0.01310563925653696, 0.13872699439525604, -0.04761362075805664, -0.1903868168592453, -0.005684383679181337, 0.08180446177721024, 0.27332523465156555, -0.12024097889661789, -0.054828185588121414, 0.15045413374900818, 0.12551261484622955, -0.1692827045917511, -0.07160919159650803, -0.044312648475170135, -0.05384155362844467, 0.17479217052459717, 0.06256170570850372, -0.08894175291061401, -0.07898561656475067], [-0.03271932154893875, 0.010470378212630749, 0.00513337180018425, 0.031063100323081017, -0.006028914358466864, -0.012701469473540783, 0.06729433685541153, -0.07641401886940002, 0.0339055210351944, 0.03503664210438728, -0.011569425463676453, 0.016210824251174927, -0.017702380195260048, 0.012570682913064957, -0.05949965864419937, -0.006005879491567612, -0.0647437646985054, -0.009949966333806515, 0.026950135827064514, 0.035647809505462646, -0.004280919209122658, 0.0051877461373806, 0.001050087041221559, 0.09591063112020493, 0.03111204132437706, -0.03634355217218399, 0.007698113564401865, 0.010341688059270382, 0.03012685477733612, -0.11312218755483627, -0.030575208365917206, -0.000944306782912463], [-0.0015498290304094553, -0.006374189630150795, -0.008914974518120289, 0.013936473056674004, -0.007231895811855793, 0.027683505788445473, -0.0038227466866374016, 0.009293976239860058, 0.004236592445522547, 0.007760134059935808, 0.00710386922582984, 0.030260713770985603, -0.003716628300026059, 0.01430616807192564, 0.006624808069318533, -0.00589716387912631, 0.004984618164598942, -0.0022320051211863756, 0.019461918622255325, -0.03455112501978874, 0.006746846251189709, 0.024775218218564987, 0.03446042537689209, -0.0314394012093544, 0.007743064779788256, -0.0019284647423774004, 0.0009817653335630894, 0.010293911211192608, 0.004481642507016659, -0.01827612705528736, -0.003916023299098015, 0.005087601020932198], [-0.11754652112722397, -0.09891894459724426, 0.04167504981160164, -0.03281853720545769, 0.01326081994920969, 0.2587117552757263, 0.07714362442493439, 0.13067476451396942, -0.056904327124357224, 0.05213358253240585, -0.0418955534696579, -0.14240369200706482, 0.01322308648377657, -0.009765658527612686, 0.12745629251003265, 0.10358569771051407, 0.01980614848434925, -0.00733065465465188, -0.06309239566326141, -0.014713297598063946, -0.07828166335821152, -0.16374251246452332, 0.12013541907072067, 0.01602291688323021, 0.2661372125148773, -0.007818425074219704, 0.016637245193123817, -0.004499364178627729, 0.13358348608016968, 0.17499184608459473, 0.08472496271133423, -0.031412042677402496], [-0.0063933078199625015, -0.00904952734708786, -0.006545415613800287, 0.0018232602160423994, -0.0033057930413633585, 0.003129319753497839, 0.0011211564997211099, -0.048563286662101746, 0.01964094117283821, 0.011746120639145374, 0.004437616094946861, -0.001815495896153152, -0.0031061095651239157, -0.004672244656831026, 0.03131828457117081, 0.027854718267917633, -0.03091488592326641, -0.004627136047929525, 0.0011827124981209636, -0.01990532875061035, 0.0034451771061867476, -0.008010534569621086, 0.031573109328746796, 0.010509083047509193, -0.019969725981354713, 0.0011135197710245848, 0.0003442787565290928, 0.016556106507778168, 0.030681578442454338, 0.00648212805390358, 0.0073702409863471985, 0.002153025008738041], [-0.08430566638708115, 0.04728151485323906, 0.11400309205055237, -0.07388580590486526, 0.06524638831615448, 0.08166501671075821, 0.2147412896156311, 0.03438091278076172, 0.10376755893230438, 0.0207931287586689, -0.034640826284885406, -0.34163713455200195, 0.02697000652551651, 0.02740943618118763, -0.32185789942741394, -0.06625092029571533, -0.26990145444869995, -0.050709955394268036, -0.16646292805671692, -0.0416487418115139, -0.4626419246196747, 0.025310110300779343, 0.09917290508747101, 0.05591340363025665, -0.39723658561706543, -0.09441471844911575, 0.1054261103272438, -0.02907930128276348, 0.3256126642227173, 0.01952209696173668, 0.22587092220783234, -0.06065478175878525], [-0.003674363950267434, -0.008104083128273487, -0.004278647713363171, -0.006982061080634594, -0.0019236310617998242, 0.030479757115244865, -0.004463696852326393, 0.012771894223988056, -0.01070044469088316, 0.008997713215649128, 0.003281549783423543, 0.020619569346308708, -3.891488449880853e-05, 0.004668131470680237, 0.023077089339494705, 0.006039400119334459, 0.007042635697871447, 0.003205748274922371, 0.0036648260429501534, -0.02835180051624775, -0.00279435096308589, -0.005274672992527485, 0.018186910077929497, -0.00505233695730567, 0.04485970363020897, 0.004833376035094261, 0.004050340969115496, 0.007383869029581547, 0.004731389228254557, 0.0185663141310215, 0.006560313515365124, -0.0018471413059160113], [-0.001048181438818574, -0.006405040621757507, 0.0011666020145639777, 0.01029971893876791, 0.0002874748024623841, -0.0030083958990871906, 0.01248231902718544, -0.018554136157035828, 0.0196052398532629, -0.00028281169943511486, -0.0016012451378628612, -0.011566617526113987, -0.0016042530769482255, -0.0028024937491863966, -0.011362187564373016, -0.015419898554682732, -0.009532563388347626, -0.0010286594042554498, 0.022829825058579445, 0.011602755635976791, -0.004196195397526026, 0.0012182409409433603, -0.0084866713732481, -0.006677636876702309, -0.007236372213810682, -0.005168130621314049, -0.0012635109014809132, -0.002504266332834959, 0.012071327306330204, 0.0022323988378047943, -0.0005611442029476166, -0.0015608054818585515], [-0.022008467465639114, -0.006649046670645475, 0.0022626076824963093, 0.0016158107900992036, -0.005339240189641714, 0.05422741919755936, -0.008937184698879719, 0.03900131210684776, -0.016110453754663467, -0.0342579148709774, 0.004362914245575666, -0.02151632495224476, 0.009969526901841164, 0.019634976983070374, 0.02760893851518631, 0.012115142308175564, 0.02304649166762829, -0.0011281491024419665, 0.015601306222379208, -0.04372820258140564, -0.006962895393371582, -0.020065464079380035, 0.04466567933559418, -0.0022905454970896244, 0.06722120195627213, 0.0007449384429492056, -0.0014459179947152734, -0.027262430638074875, -0.0027482029981911182, 0.03237569332122803, -0.005114501807838678, -0.009138304740190506], [-0.06850282102823257, -0.03653159365057945, 0.02887481264770031, -0.003258395940065384, -0.003335745306685567, 0.11227507889270782, 0.050635553896427155, 0.02367207035422325, -0.046076033264398575, 0.06999388337135315, 0.02102326974272728, -0.09925518184900284, -0.0064918571151793, 0.034794099628925323, 0.08044947683811188, 0.04053014516830444, 0.008949760347604752, 0.002855873666703701, 0.007756517734378576, -0.02544463239610195, -0.08893980085849762, -0.055245865136384964, 0.11346011608839035, 0.0063072252087295055, 0.24050495028495789, -0.03869612142443657, 0.0022844700142741203, 0.03019612841308117, 0.09356126934289932, 0.07483549416065216, 0.034219756722450256, -0.02483568899333477], [-0.016055140644311905, 0.028523804619908333, 0.021124836057424545, 0.039884526282548904, 0.002105703577399254, -0.01829550415277481, 0.10105321556329727, -0.08222866803407669, 0.05260266363620758, 0.01565631479024887, 0.00738670164719224, -0.05138353258371353, -0.043563708662986755, 0.05190616846084595, -0.16547530889511108, -0.03597060218453407, -0.08687711507081985, -0.029939841479063034, -0.030669398605823517, 0.056191638112068176, -0.06962605565786362, 0.019883176311850548, -0.003497217083349824, 0.051634617149829865, -0.10297402739524841, -0.046874575316905975, -0.009139101952314377, 0.03279181569814682, 0.03728124126791954, -0.04757462441921234, -0.0509924478828907, 0.0095366844907403], [-0.047801632434129715, -0.0021997513249516487, 0.027346855029463768, 0.015787633135914803, 0.0002420091477688402, 0.045871224254369736, 0.121273472905159, -0.02968171238899231, 0.024381279945373535, 0.01612119749188423, -0.023168938234448433, -0.09454355388879776, -0.01382991299033165, -0.02044627070426941, -0.07033012062311172, -0.018412219360470772, -0.0987170860171318, -0.009157009422779083, 0.0074221910908818245, 0.1209057867527008, -0.10445691645145416, -0.009297349490225315, 0.0011532914359122515, 0.06589681655168533, -0.024927005171775818, -0.05158746987581253, -0.011407176963984966, -0.02776641957461834, 0.14586661756038666, -0.008241026662290096, -0.012928440235555172, -0.016288477927446365], [-0.004405653569847345, 0.0004755749541800469, -0.0011203649919480085, 0.004336443729698658, -0.003304208628833294, 0.00915419403463602, 0.0013866738881915808, -0.007875552400946617, -0.0015266729751601815, 0.0032440940849483013, -0.001609728904440999, 0.007387941237539053, 0.003736327402293682, 0.0016367265488952398, 0.006424479186534882, 0.00034741079434752464, 0.0068024215288460255, -0.00023303410853259265, 0.009320809505879879, 0.006334539037197828, 0.004682654980570078, -0.0011880226666107774, 0.004597969353199005, 0.010751359164714813, 0.008963893167674541, 0.0003799534752033651, -0.0020417659543454647, -0.00025994484894908965, -0.005500474013388157, -0.006323749665170908, -0.005885334685444832, 0.00020956789376214147], [0.13282275199890137, -0.009648889303207397, -0.011509655974805355, 0.08242308348417282, -0.03669330105185509, -0.18282705545425415, -0.0364106148481369, -0.07857148349285126, 0.05170576646924019, 0.11237922310829163, 0.09410394728183746, -0.00038397518801502883, 0.08103076368570328, 0.21889373660087585, 0.10462291538715363, -0.044859107583761215, -0.021983090788125992, -0.10236047953367233, 0.18543417751789093, 0.08078337460756302, 0.22405673563480377, -0.061301443725824356, -0.22282172739505768, 0.12413445860147476, -0.03832449018955231, 0.011491137556731701, -0.20729845762252808, 0.1975441724061966, -0.08263581246137619, -0.135080948472023, -0.22791533172130585, -0.08196664601564407], [0.033616021275520325, 0.015206202864646912, 0.04214287921786308, -0.1801680028438568, 0.11018209159374237, -0.04548710212111473, -0.17989414930343628, -0.13758522272109985, 0.08302243798971176, 0.06268633902072906, -0.013426775112748146, 0.014908957295119762, -0.1325564831495285, -0.0025514387525618076, -0.09331599622964859, -0.06437933444976807, -0.05015678331255913, 0.06548202782869339, 0.04599183425307274, -0.06758121401071548, 0.09835920482873917, 0.042053788900375366, 0.011145212687551975, 0.09705618023872375, -0.12635904550552368, 0.13133764266967773, 0.03691253811120987, 0.05508755147457123, 0.059294670820236206, 0.07932650297880173, -0.08221898972988129, -0.11568360030651093], [-0.035503994673490524, -0.00894920714199543, -0.0021706484258174896, -0.07895693182945251, -0.02930445596575737, 0.031934477388858795, 0.15281318128108978, 0.06180301681160927, -0.09794723242521286, -0.07059463113546371, -0.024021456018090248, -0.1607499122619629, 0.1369750052690506, -0.0193189587444067, -0.09358005970716476, 0.1481650322675705, -0.10181454569101334, -0.02684663236141205, 0.03818816319108009, 0.003231414593756199, -0.160982146859169, 0.0019553396850824356, 0.11325331777334213, 0.11493559181690216, 0.004014759790152311, 0.03880038484930992, 0.08623265475034714, -0.10384660214185715, 0.09888995438814163, 0.06420645862817764, 0.02893959730863571, -0.0033322994131594896], [0.1103605404496193, 0.015604167245328426, 0.07916591316461563, -0.08315744251012802, -0.12506967782974243, 0.09798673540353775, -0.03976862505078316, -0.1296386569738388, 0.16947197914123535, 0.15755747258663177, -0.046817515045404434, -0.16447782516479492, 6.526523793581873e-05, 0.016670994460582733, -0.15715453028678894, -0.16068464517593384, 0.09720312058925629, -0.09426441043615341, 0.06525348871946335, -0.05206013098359108, -0.059224024415016174, -0.08928323537111282, -0.07443118840456009, 0.035632628947496414, 0.16797403991222382, -0.024456782266497612, -0.09045706689357758, 0.03272686153650284, -0.21310794353485107, -0.01386332605034113, -0.011209874413907528, -0.013174459338188171], [0.09300854057073593, 0.09163879603147507, 0.017218904569745064, 0.038291022181510925, -0.03058941289782524, -0.1810595989227295, 0.23570173978805542, 0.03819752857089043, -0.14127479493618011, -0.1735750287771225, 0.12759028375148773, 0.04107106104493141, -0.09566947817802429, 0.11117511242628098, -0.07026609033346176, 0.013883817940950394, 0.03171561285853386, 0.12822410464286804, -0.02419760823249817, 0.10279294848442078, 0.016539912670850754, -0.03063206933438778, -0.0064251115545630455, 0.1143975779414177, -0.10317995399236679, 0.11686334758996964, -0.08715181052684784, 0.15534986555576324, 0.09915851801633835, -0.1407657414674759, 0.10546958446502686, 0.016261175274848938], [-0.295339435338974, -0.18901054561138153, -0.008732269518077374, -0.379806250333786, 0.12939277291297913, -0.07617205381393433, 0.10000806301832199, 0.22121497988700867, -0.33854368329048157, -0.3775601387023926, -0.1952909529209137, 0.04876803606748581, 0.09099714457988739, -0.45868149399757385, -0.17427609860897064, 0.3798961639404297, 0.1549641340970993, 0.21516220271587372, -0.267155259847641, -0.13404949009418488, -0.11832214891910553, 0.09428085386753082, 0.31708449125289917, -0.22380584478378296, 1.022378921508789, 0.23684172332286835, 0.21134142577648163, -0.137770876288414, 0.19072659313678741, 0.5377830266952515, 0.5469133257865906, -0.018717698752880096], [0.1426771730184555, 0.07732944935560226, -0.014357635751366615, 0.25602397322654724, -0.04082861542701721, 0.03194115310907364, 0.14455261826515198, -0.19394849240779877, 0.2639354467391968, 0.3048047721385956, 0.1717909276485443, 0.013358939439058304, -0.2772320806980133, 0.26323652267456055, 0.2555748522281647, -0.29128605127334595, -0.2624446451663971, -0.15711568295955658, 0.10897120833396912, 0.11732226610183716, -0.4142588675022125, -0.09678574651479721, -0.023513924330472946, 0.15359489619731903, -0.4235769212245941, -0.3025941550731659, -0.3219548463821411, 0.29340675473213196, 0.014832588844001293, -0.13357013463974, -0.2587510347366333, -0.13559789955615997], [-0.0482921339571476, -0.09598899632692337, -0.03517869859933853, -0.16453158855438232, 0.00399664044380188, 0.02628578059375286, 0.1739959716796875, 0.14563965797424316, -0.14136479794979095, -0.20955951511859894, -0.10899773985147476, 0.009910184890031815, 0.053659096360206604, -0.031938958913087845, 0.07245121896266937, 0.15182684361934662, 0.005169382318854332, 0.12357987463474274, -0.08371858298778534, 0.10925968736410141, -0.08031097054481506, -0.029370736330747604, 0.15766851603984833, -0.1433333456516266, -0.05623897537589073, -0.028356904163956642, 0.05259779468178749, -0.11214856803417206, 0.14132337272167206, 0.007962387055158615, 0.050646040588617325, 0.0672830268740654], [0.06802547723054886, 0.15308457612991333, 0.0011928174644708633, 0.08201759308576584, -0.13843873143196106, -0.041657544672489166, -0.12420699745416641, 0.1471647024154663, 0.056598298251628876, 0.2117917388677597, 0.18690456449985504, 0.024469703435897827, -0.1995069533586502, -0.015711938962340355, -0.1467243731021881, -0.1009962260723114, -0.12818366289138794, 0.0995473638176918, 0.15758204460144043, 0.013798896223306656, -0.039487384259700775, -0.13965566456317902, 0.07764332741498947, 0.07916833460330963, -0.14974452555179596, -0.10886834561824799, -0.18649913370609283, -0.12668012082576752, 0.1015625, -0.14050494134426117, 0.045442089438438416, 0.061015959829092026], [0.09794872999191284, -0.05704401805996895, -0.06213662773370743, 0.020755888894200325, -0.013826738111674786, 0.16412976384162903, 0.05754729360342026, 0.1350042074918747, -0.06742313504219055, 0.1831151843070984, 0.13171015679836273, -0.13888420164585114, -0.12074048817157745, -0.026244347915053368, -0.1589364856481552, -0.06990227848291397, 0.19724099338054657, 0.1402638703584671, -0.04297429323196411, -0.09604889154434204, 0.04326203092932701, -0.16020548343658447, 0.20438224077224731, -0.08144789934158325, 0.251350075006485, -0.1578366607427597, 0.0807282030582428, 0.03748314827680588, -0.06326395273208618, 0.03723680227994919, 0.12047714740037918, -0.11827471107244492], [0.09486187994480133, 0.003303737845271826, 0.05277879163622856, -0.07673951983451843, -0.12492653727531433, -0.04010762274265289, -0.04770277813076973, 0.0691254734992981, -0.10804945975542068, 0.035941027104854584, 0.017939524725079536, -0.027787351980805397, -0.10827933996915817, -0.03638234734535217, -0.17543211579322815, -0.13960126042366028, 0.19810718297958374, -0.12976206839084625, -0.05835589021444321, -0.11924462020397186, -0.12288452684879303, -0.08194786310195923, -0.056920044124126434, -0.0642700269818306, 0.3563118577003479, -0.006269415840506554, 0.031980548053979874, -0.05361500754952431, -0.1837087720632553, 0.12704157829284668, 0.08475363999605179, -0.05918416753411293], [0.34448060393333435, 0.061062052845954895, -0.04253503680229187, 0.29614371061325073, -0.27848705649375916, -0.0396893136203289, -0.20330241322517395, -0.013179360888898373, 0.48857733607292175, 0.37755680084228516, 0.1209767535328865, 0.05543729290366173, -0.20540262758731842, 0.29814833402633667, 0.5339409708976746, -0.2538221776485443, 0.18377991020679474, -0.11836075782775879, 0.2257242351770401, -0.14508476853370667, 0.20655018091201782, 0.21752960979938507, -0.45431503653526306, 0.13175301253795624, -0.47284504771232605, -0.20032258331775665, -0.36355650424957275, 0.09702926874160767, -0.10880693048238754, -0.3403688073158264, -0.2252410501241684, 0.015711484476923943], [-0.03525856137275696, -0.025360533967614174, 0.1081724762916565, 0.06680236011743546, 0.016162917017936707, -0.026535945013165474, 0.005839833989739418, 0.025194188579916954, 0.08451279252767563, -0.15556290745735168, 0.11755611002445221, 0.1276642084121704, 0.1445143073797226, -0.20963044464588165, 0.07205938547849655, 0.07307882606983185, -0.10575518012046814, 0.06660435348749161, -0.18187464773654938, -0.14126864075660706, 0.10901742428541183, -0.13310515880584717, 0.09902071952819824, 0.1077444776892662, -0.060138553380966187, 0.04958387464284897, -0.06411141157150269, -0.04043351486325264, 0.04532628878951073, 0.06693955510854721, 0.16376982629299164, -0.03497349098324776], [-0.12900108098983765, -0.07735497504472733, 0.13065005838871002, -0.05887110158801079, 0.03266724571585655, 0.12570984661579132, -0.3665463626384735, 0.1885441690683365, -0.06601465493440628, 0.050657063722610474, 0.054371658712625504, -0.3110588788986206, 0.06770505756139755, -0.22449900209903717, -0.22310121357440948, -0.021511465311050415, 0.11505112797021866, 0.0859638974070549, 0.10013347119092941, -0.3713285028934479, -0.30638638138771057, -0.05587729439139366, -0.06251990795135498, -0.11048896610736847, 0.23678536713123322, 0.003157364670187235, 0.12018565088510513, -0.026545142754912376, -0.15151447057724, 0.07821902632713318, 0.3351409137248993, -0.16359087824821472], [-0.06907845288515091, -0.0525142066180706, -0.15668004751205444, -0.20305614173412323, 0.17268610000610352, 0.31716734170913696, 0.04274605214595795, 0.019107868894934654, -0.13716742396354675, -0.06662509590387344, -0.018631409853696823, 0.19694305956363678, -0.12221662700176239, -0.12553822994232178, -0.49085599184036255, 0.20801112055778503, 0.15310925245285034, 0.08015526086091995, 0.04862944036722183, -0.016268683597445488, 0.7965286374092102, -0.10262434184551239, 0.14293357729911804, -0.023837216198444366, 1.4012619256973267, 0.09441054612398148, 0.041413627564907074, 0.008512464351952076, -0.10300426930189133, 0.060513440519571304, -0.21155455708503723, -0.016425298526883125], [0.05736446753144264, -0.05286112055182457, -0.13375085592269897, -0.07117151468992233, 0.1682654172182083, -0.053466975688934326, 0.08673559874296188, -0.008324641734361649, -0.05618385598063469, 0.09832973778247833, 0.12730367481708527, -0.05277077853679657, 0.090830497443676, 0.03322067856788635, -0.011391861364245415, 0.19453833997249603, -0.030022338032722473, -0.015820922330021858, -0.04287568852305412, -0.16164101660251617, 0.2369917929172516, -0.13180488348007202, -0.024424640461802483, 0.10256222635507584, 0.08903110772371292, -0.024665474891662598, 0.05680505931377411, -0.09233289211988449, 0.1821403056383133, -0.024839628487825394, -0.10887709259986877, 0.12897196412086487], [-0.07001855969429016, -0.20933426916599274, 0.0038398196920752525, -0.33658620715141296, 0.21285885572433472, -0.13164019584655762, -0.08083129674196243, 0.0035977771040052176, -0.3220662772655487, -0.3216131031513214, -0.28749772906303406, 0.03686194494366646, 0.04258423298597336, -0.3153638541698456, -0.18257848918437958, 0.4620669186115265, 0.1124255508184433, 0.3357246518135071, -0.28308042883872986, -0.16648505628108978, 0.26595941185951233, -0.012963656336069107, 0.2347618192434311, -0.2277742624282837, 0.3791689872741699, 0.31340843439102173, 0.24709199368953705, -0.21142543852329254, 0.07174728065729141, 0.26044130325317383, 0.4543932378292084, -0.1393212527036667], [0.1689954251050949, 0.04583132266998291, 0.003024226287379861, -0.029561348259449005, -0.10284867137670517, -0.006871938705444336, 0.041812025010585785, -0.1261557936668396, 0.03117203526198864, 0.07700134068727493, 0.19357936084270477, 0.05880722030997276, 0.04736785218119621, -0.0681193470954895, 0.18617849051952362, -0.018869370222091675, -0.0007836013101041317, 0.013471171259880066, 0.047457218170166016, 0.06689921766519547, 0.031228873878717422, -0.05284777283668518, -0.12156045436859131, -0.14688456058502197, -0.044130705296993256, 0.012984764762222767, 0.03411795571446419, 0.15477968752384186, 0.013152554631233215, 0.07092536985874176, -0.05102752149105072, 0.05487794056534767], [-0.031149068847298622, 0.19747790694236755, 0.09728480130434036, -0.14686185121536255, -0.02975422516465187, 0.1969192922115326, -0.016307616606354713, 0.07193275541067123, 0.1630801409482956, -0.03363567218184471, 0.06232054531574249, -0.04502231255173683, -0.18220143020153046, 0.04876609519124031, 0.0681309700012207, 0.012778718955814838, 0.1516769677400589, -0.06045971438288689, -0.06419414281845093, 0.01958393305540085, 0.11591553688049316, -0.09559740126132965, 0.09674961119890213, 0.11167122423648834, 0.18160374462604523, 0.02286899834871292, -0.16074728965759277, -0.11253949254751205, -0.12535031139850616, -0.05203103646636009, -0.1248185783624649, -0.001889838371425867], [0.37895098328590393, -0.012294820509850979, 0.15565355122089386, 0.2676357924938202, -0.23709283769130707, -0.15478433668613434, 0.026972711086273193, -0.09953966736793518, 0.15625567734241486, 0.3324124813079834, 0.3627806305885315, -0.2655183970928192, -0.18078437447547913, 0.5281801819801331, 0.4842369556427002, -0.2261565923690796, -0.35970935225486755, -0.1371455192565918, 0.16432879865169525, 0.08552665263414383, -0.5899838209152222, -0.2698872983455658, -0.09188977628946304, 0.049214985221624374, -1.047687292098999, -0.21444553136825562, -0.07489648461341858, 0.11914777755737305, 0.0442725270986557, 0.11583304405212402, -0.434613972902298, -0.06309470534324646], [0.2535867393016815, 0.03331349417567253, -0.07330784201622009, 0.1319625973701477, -0.06423456966876984, -0.0013845217181369662, -0.3534821569919586, -0.19504539668560028, 0.1869446337223053, 0.17544226348400116, 0.24256595969200134, 0.12863731384277344, -0.09339918941259384, 0.37614989280700684, 0.6840115189552307, -0.09989304095506668, 0.21482893824577332, -0.12652736902236938, 0.2562829852104187, -0.10420837253332138, -0.0038512423634529114, -0.05402325838804245, -0.2759244441986084, -0.008665882982313633, -0.6754971146583557, -0.17010821402072906, -0.18664459884166718, 0.06740596145391464, -0.0029100363608449697, -0.32239365577697754, -0.20874708890914917, -0.062444429844617844], [0.13579857349395752, 0.10342907160520554, -0.011865779757499695, 0.011597131378948689, -0.06629031896591187, -0.09638256579637527, -0.06739898771047592, -0.0167666245251894, 0.20647600293159485, 0.22126391530036926, 0.08071451634168625, 0.15709365904331207, -0.14335960149765015, 0.030406437814235687, 0.11467208713293076, -0.12255915254354477, -0.07139867544174194, 0.01353532262146473, -0.012861442752182484, 0.04767867550253868, 0.13145695626735687, -0.053437285125255585, -0.2024584263563156, -0.018347622826695442, -0.12494330108165741, 0.03662535920739174, -0.027880392968654633, 0.008714979514479637, -0.0973312109708786, -0.1576727032661438, -0.028819750994443893, -0.008927705697715282], [-0.05201176926493645, -0.14950507879257202, 0.015824325382709503, -0.22771966457366943, 0.08084049820899963, 0.1785963922739029, 0.1438857913017273, -0.0441385917365551, -0.1682482212781906, -0.1830301731824875, 0.07568301260471344, 0.11435851454734802, 0.14699870347976685, -0.12223783880472183, 0.11510325223207474, 0.20596058666706085, 0.14223118126392365, 0.2452547401189804, -0.24047473073005676, -0.16206492483615875, -0.17367729544639587, 0.015961071476340294, 0.11941106617450714, -0.02788047306239605, 0.24684801697731018, 0.16944362223148346, 0.26585653424263, -0.08778219670057297, -0.019827868789434433, 0.0048012640327215195, 0.2675758898258209, -0.09649563580751419], [-0.08983935415744781, 0.1344304084777832, 0.013642612844705582, 0.06745650619268417, 0.006322088651359081, 0.06569496542215347, -0.0261859018355608, -0.05652112513780594, 0.016337687149643898, 0.00186818721704185, 0.02652221918106079, -0.08806530386209488, -0.03114602342247963, 0.021909045055508614, -0.12915588915348053, 0.022891510277986526, 0.15907475352287292, 0.010076838545501232, 0.0190739668905735, 0.10073485970497131, -0.029778214171528816, -0.09765807539224625, -0.03414487838745117, -0.08189984411001205, 0.1116650253534317, -0.05814997851848602, 0.030214456841349602, -0.09031937271356583, -0.0971769243478775, 0.042455337941646576, -0.011326061561703682, -0.09499843418598175], [-0.25401103496551514, 0.0025160349905490875, -0.020684588700532913, -0.050566673278808594, 0.029146725311875343, -0.429145872592926, 0.08482684195041656, 0.06741882860660553, -0.1290244162082672, 0.029065079987049103, 0.09661532193422318, 0.05207446590065956, 0.09515225887298584, 0.13962054252624512, -0.12696783244609833, 0.05161844566464424, 0.10953135043382645, -0.052334416657686234, -0.005522086285054684, -0.050816431641578674, 0.11667691171169281, -0.010445722378790379, -0.07253024727106094, -0.06398820877075195, 0.1678362637758255, -0.000644041458144784, 0.0880352035164833, 0.11643119156360626, 0.09468264132738113, 0.1464851200580597, 0.04498299956321716, 0.113385409116745], [0.10073971003293991, 0.07596348971128464, -0.1853078007698059, -0.0075500402599573135, 0.0248176921159029, -0.11754906177520752, -0.06856141239404678, 0.061904143542051315, -0.012763295322656631, -0.0375765822827816, -0.058650270104408264, 0.18925794959068298, 0.08165609836578369, -0.0779174417257309, 0.1751832664012909, 0.10931526124477386, 0.012704839929938316, -0.023369180038571358, 0.018520507961511612, 0.045007411390542984, 0.27631545066833496, 0.19689252972602844, -0.05151231959462166, 0.016191042959690094, -0.043014660477638245, 0.021852342411875725, -0.013351826928555965, 0.05873875692486763, -0.10548148304224014, -0.10208530724048615, -0.06836176663637161, 0.07525606453418732], [-0.006171060726046562, -0.11273139715194702, -0.15168750286102295, 0.15512146055698395, -0.036629568785429, -0.04722105711698532, -0.03510060906410217, 0.08523496985435486, 0.08503367751836777, 0.06680706143379211, -0.09429402649402618, 0.04270697012543678, 0.03422081843018532, 0.07160057872533798, 0.06209487095475197, -0.03492698445916176, -0.16501982510089874, 0.14853353798389435, -0.11590398848056793, -0.11526531726121902, 0.1150321364402771, 0.13006865978240967, -0.00772250909358263, 0.14854441583156586, -0.09262045472860336, -0.033615291118621826, -0.15546759963035583, -0.062187403440475464, 0.1315593719482422, -0.06681632995605469, 0.11391307413578033, 0.06391041725873947], [0.05374125391244888, 0.09857363998889923, 0.05746227130293846, -0.10100754350423813, -0.14447782933712006, 0.15378381311893463, -0.06085320562124252, 0.00748746981844306, 0.046494260430336, 0.11768994480371475, 0.07742989808320999, -0.12745529413223267, -0.1469128131866455, -0.0343257300555706, 0.03384750708937645, -0.0031355973333120346, 0.21282579004764557, -0.1721164584159851, 0.10667107254266739, -0.1907082051038742, -0.13527345657348633, -0.002660359488800168, 0.1171632930636406, -0.10176961123943329, 0.1393781304359436, 0.0018203241052106023, -0.03472943976521492, 0.004381846636533737, -0.09566830098628998, -0.1459863930940628, -0.07483609020709991, -0.04714834690093994], [-0.1420600414276123, 0.10961644351482391, 0.025713270530104637, 0.10994771867990494, -0.07562126219272614, 0.15909184515476227, 0.5168476700782776, 0.09402962774038315, 0.08468852192163467, 0.16821260750293732, 0.011695686727762222, -0.12374113500118256, -0.05867430195212364, 0.000577600032556802, -0.21233268082141876, -0.024603955447673798, -0.22348830103874207, -0.05260283872485161, -0.02029937505722046, 0.5350654125213623, -0.05032452568411827, -0.01723221316933632, -0.004339330829679966, -0.010902381502091885, 0.12902997434139252, -0.08720511198043823, -0.08008651435375214, -0.04358120262622833, -0.0543031245470047, -0.024965427815914154, -0.3114759624004364, -0.040968962013721466], [0.010842389427125454, -0.08140772581100464, -0.06934327632188797, -0.09091321378946304, 0.1867322027683258, -0.05663701146841049, 0.3931979238986969, -0.00403218250721693, -0.12379451096057892, -0.2843805253505707, -0.16976910829544067, 0.10659436881542206, 0.07573875784873962, -0.1816798746585846, -0.08005180954933167, 0.16708101332187653, -0.05422920733690262, -0.03613356128334999, 0.06741739064455032, 0.08951593190431595, 0.4432280957698822, 0.12016884982585907, 0.03357092663645744, -0.11919815838336945, 0.470237135887146, 0.27435800433158875, 0.07328527420759201, -0.11468382179737091, -0.06802093237638474, 0.08842319995164871, -0.08930215239524841, 0.2590349316596985], [-0.19219870865345, -0.08491230756044388, 0.10496486723423004, -0.10010359436273575, 0.017150754109025, -0.1489330381155014, 0.35906562209129333, 0.06948241591453552, -0.2160351574420929, -0.3044252097606659, -0.021868353709578514, 0.2697609066963196, 0.15248854458332062, -0.029139835387468338, -0.08878228068351746, 0.22675636410713196, -0.11061528325080872, 0.13365252315998077, -0.17259016633033752, 0.1241157054901123, 0.3126923441886902, 0.04746450111269951, -0.005903540179133415, -0.10912563651800156, 0.15963268280029297, 0.031035199761390686, 0.0157473087310791, 0.09452102333307266, 0.004772516433149576, 0.06651265174150467, -0.20762516558170319, 0.02439030632376671], [0.11269041895866394, 0.11826524138450623, -0.043067701160907745, -0.005261824931949377, -0.1014823317527771, -0.13874654471874237, -0.06509987264871597, -0.06092488765716553, 0.20042423903942108, 0.23878756165504456, 0.04626335948705673, 0.017237462103366852, -0.0965396836400032, -0.03481695428490639, 0.20343585312366486, -0.1562306135892868, 0.025888562202453613, -0.13557939231395721, 0.0337560810148716, -0.18948359787464142, -0.06022467464208603, 0.08187957853078842, -0.1789901703596115, 0.17092110216617584, -0.09944581985473633, -0.019281938672065735, -0.04638095200061798, -0.03618025407195091, 0.041264913976192474, -0.005607659928500652, 0.03526754304766655, -0.17924906313419342], [-0.06504775583744049, -0.06059739738702774, 0.05525753274559975, -0.009065095335245132, 0.01173705980181694, 0.13074837625026703, 0.11542615294456482, 0.06598904728889465, -0.043671365827322006, 0.04828015714883804, -0.03060160018503666, -0.21385860443115234, 0.020104503259062767, 0.027996743097901344, -0.02814703993499279, 0.01267199032008648, -0.06429066509008408, -0.007451132405549288, -0.04654568061232567, 0.14526335895061493, -0.11279309540987015, -0.11639953404664993, 0.055237047374248505, -0.04096641018986702, 0.09943366050720215, -0.061537470668554306, -0.005861813668161631, 0.019991468638181686, 0.10388220846652985, 0.09205080568790436, 0.0015677474439144135, -0.027613840997219086], [0.0035520505625754595, 0.028277749195694923, 0.03961837664246559, 0.01111270859837532, 0.006605058908462524, -0.009111574850976467, 0.05971875041723251, 0.01206140872091055, -0.015621243044734001, 0.0036953429225832224, 0.023406216874718666, -0.10104028880596161, -0.07856688648462296, 0.010032199323177338, 0.005777866579592228, -0.019739581272006035, -0.07779835164546967, -0.010172759182751179, 0.06288324296474457, 0.07431487739086151, -0.012590830214321613, -0.050782281905412674, 0.008815368637442589, -0.02368295006453991, -0.006275859661400318, -0.03455384820699692, -0.005000544711947441, -0.008831349201500416, -0.005378516390919685, -0.019715098664164543, -0.009582619182765484, -0.017176376655697823], [0.009634064510464668, 0.00623356644064188, -0.00681448495015502, 0.004917528945952654, -0.0045790658332407475, -0.008923554793000221, -0.007425545249134302, -0.011325009167194366, 0.007580445148050785, 0.006021610461175442, 0.0019018014427274466, 0.03652617335319519, -0.003109448356553912, 0.005212676711380482, -0.006640295963734388, -0.004391775932163, 0.0016520159551873803, -0.0024684122763574123, 0.008925888687372208, -0.008351529948413372, 0.01149279810488224, 0.006724230013787746, -0.002656701020896435, -0.006268425844609737, -0.036914512515068054, 0.0026375434827059507, -0.0005719123873859644, 0.007187969516962767, -0.01566382311284542, -0.027059359475970268, -0.010419336147606373, 0.002048896159976721], [-0.004427971318364143, 0.005951330065727234, 0.01575842872262001, 0.017471756786108017, -0.006418913137167692, 0.011729376390576363, 0.009272406809031963, 0.07084875553846359, -0.048119232058525085, 0.02203199453651905, 0.00840688031166792, -0.023341231048107147, -0.018427204340696335, 0.024984152987599373, 0.009440767578780651, -0.006085759494453669, -0.036803457885980606, -0.005727234296500683, -0.034081798046827316, 0.03622119873762131, -0.011064781807363033, -0.026295030489563942, -0.015513250604271889, -0.011941103264689445, -0.04734876751899719, -0.011674229055643082, -0.004800731781870127, 0.0121975839138031, 0.016615958884358406, 0.009490776807069778, -0.016566159203648567, -0.0030339518561959267], [0.017912698909640312, 0.02565043978393078, 0.020165955647826195, -0.021671827882528305, 0.005488665774464607, -0.07778161019086838, 0.11703935265541077, 0.07908168435096741, -0.001134774531237781, 0.055081624537706375, -0.002103097504004836, -0.001861374475993216, 0.0012901341542601585, 0.011539317667484283, -0.024363424628973007, -0.02640998736023903, -0.10077609121799469, -0.018291963264346123, -0.00047958994400687516, 0.11454996466636658, -0.012276502326130867, -0.05134234577417374, -0.02923540771007538, -0.014430183917284012, -0.02935800328850746, -0.04171415790915489, -0.0060693128034472466, 0.02031032182276249, 0.018043745309114456, -0.03336610645055771, -0.018494706600904465, 0.0025794024113565683], [0.0003214386524632573, -0.025480059906840324, -0.04403194040060043, 0.0007760692969895899, -0.01749425008893013, 0.05929942801594734, -0.15330161154270172, 0.07780909538269043, -0.07491066306829453, 0.004361984319984913, 0.0731494203209877, -0.06571970880031586, -0.02305145561695099, 0.08002747595310211, 0.25849565863609314, 0.05401076376438141, 0.10553921014070511, 0.006585373543202877, 0.03816639631986618, -0.0220484621822834, 0.1341085284948349, -0.018406493589282036, 0.027877237647771835, -0.08363695442676544, 0.26387715339660645, 0.05867116153240204, -0.0038445971440523863, 0.06640242785215378, -0.14913424849510193, 0.11334062367677689, -0.02150362730026245, 0.019438445568084717], [-0.0757804811000824, -0.10301632434129715, 0.06291352957487106, -0.11715090274810791, 0.13739532232284546, 0.10780035704374313, -0.03370852395892143, 0.114998459815979, -0.14752203226089478, -0.23271195590496063, -0.05756646767258644, -0.22081290185451508, 0.11619263142347336, -0.1370660811662674, -0.01611037738621235, 0.06277146190404892, 0.08147542178630829, 0.10776105523109436, -0.09117136150598526, -0.0711730569601059, -0.0021714926697313786, -0.03991761431097984, 0.11118216067552567, -0.18459771573543549, 0.24043484032154083, 0.09754759818315506, 0.04068751633167267, -0.1692744791507721, 0.007782658562064171, 0.24371810257434845, 0.06554235517978668, -0.14515362679958344], [-0.030086563900113106, 0.0012892611557617784, 0.01937749609351158, 0.030062777921557426, -0.029891693964600563, 0.0923093631863594, 0.01641331985592842, -0.04980359971523285, -0.025740759447216988, 0.07559746503829956, 0.02907411940395832, -0.04412464052438736, -0.02333291433751583, 0.07124969363212585, 0.06965921819210052, -0.0027007590979337692, -0.04081471636891365, -0.013175643980503082, -0.018254803493618965, 0.03512764349579811, -0.0713215321302414, -0.02934420295059681, 0.022134754806756973, 0.03037186525762081, -0.10540030896663666, -0.04200774431228638, -0.01258739735931158, 0.034896526485681534, 0.07113808393478394, -0.0018446529284119606, -0.02559729665517807, -0.013350165449082851], [0.04002757743000984, -0.07716821879148483, 0.053658802062273026, -0.07631077617406845, 0.008036420680582523, -0.054142557084560394, 0.10329331457614899, 0.026265595108270645, -0.09453610330820084, 0.05765276402235031, 0.017335625365376472, -0.10336755961179733, -0.045887064188718796, 0.04177812114357948, -0.030567439272999763, 0.03699871525168419, -0.09127222746610641, -0.01708429679274559, -0.010009738616645336, 0.1847766786813736, -0.051492638885974884, -0.12144318968057632, 0.0013420445611700416, -0.029648669064044952, -0.19374431669712067, -0.03569752350449562, 0.006666008848696947, 0.04523446410894394, 0.06703504920005798, 0.053793054074048996, -0.01102141011506319, 0.012588497251272202], [-0.062129635363817215, -0.07185256481170654, 0.0732678547501564, -0.06144275143742561, 0.027740847319364548, 0.05345067381858826, 0.19642366468906403, 0.23529554903507233, -0.06701655685901642, 0.022472722455859184, -0.016206488013267517, -0.17376503348350525, 0.024524668231606483, 0.038515400141477585, -0.06283216178417206, -0.0008241409668698907, -0.06332726776599884, 0.013762271963059902, -0.06461092829704285, 0.19923372566699982, -0.04922698438167572, -0.1269761025905609, 0.06977790594100952, -0.12211084365844727, 0.12571930885314941, -0.06068072468042374, -0.015774650499224663, 0.044530484825372696, 0.08658204972743988, 0.18776889145374298, -0.06181598827242851, -0.05418233573436737], [-0.03354884684085846, -0.009917660616338253, 0.01782873459160328, 0.0023567380849272013, 0.0005853779148310423, 0.013426639139652252, 0.06628704816102982, 0.039123695343732834, 0.0012017327826470137, 0.01576574333012104, -0.0033974717371165752, -0.07477901130914688, -0.022154469043016434, 0.014240002259612083, -0.03951553255319595, -0.014802485704421997, -0.058220937848091125, -0.009984621778130531, 0.00036901270505040884, 0.10485692322254181, -0.02608727663755417, -0.019596129655838013, -0.0005223265034146607, -0.02742861583828926, -0.008130605332553387, -0.03548407927155495, -0.012390193529427052, -0.005424434319138527, 0.021815696731209755, 0.011556909419596195, -0.047516271471977234, -0.003937503322958946], [-0.013221921399235725, -0.0047832452692091465, 0.04413449019193649, 0.020983414724469185, 0.018404021859169006, -0.13270100951194763, 0.10167314112186432, 0.03416282311081886, 0.030606141313910484, 0.14064258337020874, 0.0994434580206871, 0.0007409034296870232, -0.25130942463874817, 0.133778378367424, -0.13538898527622223, -0.04053950682282448, -0.2040604054927826, -0.0175554808229208, 0.004312009550631046, 0.14813117682933807, -0.10776472836732864, -0.02239646017551422, 0.000737448048312217, -0.04154285788536072, -0.22276894748210907, -0.09650181978940964, -0.006220654584467411, 0.11300958693027496, 0.06388664245605469, -0.12226631492376328, -0.07975076884031296, 0.014141492545604706], [0.030893471091985703, -0.028607022017240524, -0.023425495252013206, 0.024023303762078285, 0.03316652029752731, -0.007647742982953787, 0.04139849916100502, 0.07174018770456314, -0.03794654831290245, -0.016334854066371918, 0.047904122620821, -0.23545753955841064, -0.08598406612873077, 0.03858870640397072, -0.09708070755004883, -0.006252109073102474, -0.08933898061513901, 0.011969265528023243, 0.010604597628116608, 0.1846247911453247, -0.0749889686703682, -0.10420209914445877, -0.035678282380104065, -0.007359067443758249, 0.0826229453086853, -0.04012351483106613, 0.015696819871664047, -0.07208330929279327, 0.07301744818687439, 0.20375391840934753, 0.01183636486530304, -0.057518746703863144], [-0.016824685037136078, -0.01735716313123703, 0.01417858898639679, -0.002391848247498274, -0.007083033677190542, 0.0249467883259058, 0.04792115464806557, 0.03955216705799103, -0.0092152189463377, 0.048737041652202606, 0.01919936016201973, -0.05260413512587547, -0.03274020925164223, 0.027196798473596573, 0.027557669207453728, 0.0021311368327587843, -0.04867402836680412, -0.004761232994496822, -0.00019155182235408574, 0.043097227811813354, -0.04499400034546852, -0.02593197487294674, 0.035748016089200974, -0.021124541759490967, 0.02958875522017479, -0.03114483691751957, -0.003243359737098217, 0.025201544165611267, 0.047658197581768036, 0.033721923828125, -0.030085166916251183, -0.005439412780106068], [0.016737109050154686, -0.04267217963933945, 0.04364872723817825, -0.04500816762447357, 0.04461193084716797, -0.2608778476715088, 0.23797018826007843, 0.15399862825870514, 0.03982718661427498, 0.03310626372694969, -0.021886125206947327, 0.013752617873251438, -0.1190546303987503, -0.09258844703435898, -0.2977859377861023, -0.08222652226686478, -0.31432992219924927, -0.010290935635566711, -0.07593671977519989, 0.38084420561790466, -0.0036785677075386047, -0.012803589925169945, -0.04844742640852928, -0.11068915575742722, -0.10575111210346222, -0.05538017302751541, -0.017908800393342972, 0.002571803517639637, 0.0959867462515831, 0.006637603510171175, -0.10767900198698044, -0.0011143805459141731], [-0.04082322493195534, -0.05061893165111542, 0.021098552271723747, -0.04469868540763855, 0.05615345761179924, -0.09291093796491623, 0.04764588549733162, 0.08995003998279572, -0.007646844256669283, -0.039302095770835876, 0.021047640591859818, -0.1118331104516983, -0.06591763347387314, -0.034189410507678986, -0.07278913259506226, -0.06456441432237625, -0.1176249235868454, -0.0074730534106493, -0.029711604118347168, 0.11536380648612976, -0.0296584852039814, -0.09045232087373734, -0.05656111612915993, 0.02565549500286579, -0.07526867836713791, -0.0030248775146901608, 0.00824687723070383, -0.020870599895715714, 0.04026545584201813, 0.018986517563462257, 0.009328154847025871, -0.010650266893208027], [-0.09063911437988281, -0.0029468920547515154, -0.014970659278333187, -0.09130062907934189, 0.045317716896533966, -0.017783254384994507, 0.003466186113655567, 0.1345687359571457, -0.0811961442232132, -0.06623616814613342, -0.03861250355839729, -0.1320303976535797, 0.051186900585889816, -0.09609042853116989, 0.043112561106681824, 0.05025264993309975, -0.04871148243546486, 0.01769579015672207, -0.11228585243225098, -0.00852257665246725, -0.06684564054012299, -0.009378969669342041, 0.14140333235263824, -0.1717064082622528, 0.1701420098543167, 0.07539580762386322, 0.04162975773215294, -0.049942370504140854, 0.011116880923509598, 0.20755571126937866, 0.13617855310440063, 0.007712602615356445], [0.00042599509470164776, -0.004518032539635897, 0.00467369519174099, -0.0037902956828475, 0.003336404450237751, -0.014174186624586582, 0.030816959217190742, 0.015366239473223686, 0.00633779913187027, 0.007553141098469496, 0.001259684911929071, -0.029665205627679825, -0.0010381578467786312, 0.002008969197049737, -0.005280627869069576, -0.0018642765935510397, -0.03028814122080803, -0.00053051469149068, 0.005688424222171307, 0.05578115954995155, -0.005149452947080135, -0.008086353540420532, -0.010659120045602322, -0.015053058043122292, -0.015853773802518845, -0.008848035708069801, -0.0017121280543506145, 0.001491685165092349, 0.010032249614596367, 0.004276049789041281, -0.005407998804003, -0.002821344183757901], [0.04783445969223976, 0.02305600419640541, 0.06902971118688583, -0.017592886462807655, -0.014314123429358006, -0.1807856559753418, 0.10986415296792984, -0.07747712731361389, 0.010134201496839523, 0.04437408968806267, 0.0155448904260993, 0.00669460603967309, 0.059260424226522446, 0.020187724381685257, -0.026036396622657776, 0.10476355999708176, -0.14907321333885193, -0.019342582672834396, -0.10107512772083282, 0.07249774783849716, -0.007544232998043299, 0.020870555192232132, -0.045013636350631714, -0.12335163354873657, -0.10971251130104065, -0.029782334342598915, 0.03446725755929947, 0.07014966756105423, 0.032670971006155014, 0.1072472557425499, -0.017231199890375137, -0.014255889691412449], [-0.17688091099262238, -0.1767059713602066, 0.04092933610081673, -0.19822946190834045, 0.020263027399778366, 0.26081451773643494, 0.18824099004268646, 0.24821248650550842, -0.16281689703464508, 0.07818319648504257, -0.03920341283082962, 0.04075280576944351, -0.010823279619216919, -0.1003304123878479, 0.19901463389396667, 0.02937912940979004, -0.030693721026182175, 0.09181690216064453, -0.036015987396240234, -0.027295947074890137, 0.08660148829221725, -0.07833658158779144, 0.2881763279438019, -0.13807088136672974, 0.3147960305213928, -0.03565593436360359, 0.016530640423297882, 0.060909103602170944, 0.2612641155719757, 0.20771631598472595, 0.01664227992296219, -0.07089278101921082], [0.04757463559508324, -0.0021547505166381598, 0.015827931463718414, 0.001155171892605722, -0.02007107250392437, 0.00616426719352603, -0.09943579882383347, 0.04911991208791733, 0.027963867411017418, 0.14139343798160553, 0.08300952613353729, 0.07132323086261749, -0.09096808731555939, 0.17513121664524078, 0.1327260136604309, -0.038043051958084106, 0.053036078810691833, -0.026537373661994934, 0.0011936029186472297, -0.1422927975654602, 0.032001394778490067, -0.013711746782064438, 0.031786587089300156, -0.07000531256198883, -0.4186091721057892, -0.03646223247051239, -0.014930409379303455, 0.10102957487106323, -0.04398120939731598, -0.10475336015224457, -0.12794171273708344, 0.006510178558528423], [0.037217944860458374, 0.008337246254086494, -0.016323627904057503, 0.04075661674141884, -0.00970820989459753, -0.05140727013349533, -0.026005743071436882, -0.029993465170264244, 0.056808311492204666, -0.004666532855480909, 0.008564234711229801, 0.03253696486353874, 0.004408137872815132, 0.026736022904515266, -0.012345968745648861, -0.0011106919264420867, -0.024014323949813843, -0.008214147761464119, -0.011730042286217213, -0.03573980927467346, 0.016414068639278412, 0.03477582708001137, 0.0035999733954668045, 0.010404793545603752, -0.07609561085700989, 0.004807695280760527, -0.002396257594227791, 0.01995074562728405, -0.03584326431155205, -0.05112599954009056, -0.023548340424895287, 0.011906638741493225], [0.13390693068504333, -0.04799493029713631, -0.009774337522685528, 0.06766311079263687, 0.015435141511261463, -0.03226694092154503, -0.01690838485956192, 0.0912889689207077, 0.057997629046440125, 0.050899144262075424, 0.03708597645163536, -0.18309979140758514, -0.04869946837425232, 0.07618406414985657, 0.12272530049085617, 0.044783465564250946, -0.19015063345432281, -0.019589364528656006, -0.021091721951961517, 0.14192044734954834, -0.040253736078739166, -0.14624522626399994, -0.09433650970458984, 0.01779022254049778, -0.2900632321834564, -0.009462166577577591, -0.01751013658940792, 0.0898934006690979, 0.0164886936545372, 0.036039602011442184, -0.01411375217139721, -0.010476240888237953], [0.012390322051942348, -0.001024028635583818, 0.0015217660693451762, 0.017126694321632385, -0.010753843002021313, 0.00301767117343843, -0.0054075452499091625, -0.021386634558439255, -0.0065565695986151695, 0.02280530147254467, 0.007755046710371971, 0.0019135818583890796, -0.003964114468544722, 0.005017026327550411, 0.04829254746437073, -0.018550783395767212, -0.042610544711351395, -0.0050293332897126675, 0.0038343474734574556, -0.009310218505561352, -0.02094598114490509, 0.005626349709928036, 0.004090569913387299, 0.02366616018116474, -0.08917349576950073, 0.0008978372206911445, -0.0029049552977085114, 0.008408748544752598, 0.041891105473041534, 0.0005757927428930998, 0.002882805885747075, 0.0019547680858522654], [-0.23065873980522156, -0.11308997124433517, 0.05701208487153053, -0.16078872978687286, 0.08756604045629501, 0.04241137579083443, 0.4305984079837799, 0.31425076723098755, -0.1116352528333664, 0.05419518053531647, 0.00032146769808605313, -0.4515678584575653, -0.14507663249969482, -0.20865151286125183, -0.13587450981140137, 0.04996473342180252, -0.37421882152557373, 0.032595403492450714, -0.14016073942184448, 0.611305296421051, -0.255677729845047, -0.053882911801338196, 0.027750737965106964, -0.24042975902557373, 1.0109256505966187, -0.06875469535589218, 0.03895040601491928, -0.0015415387460961938, 0.3867705166339874, 0.6367125511169434, 0.1270579993724823, -0.012449419125914574], [0.003986357245594263, -0.0039374507032334805, -0.002260669367387891, -0.003679667366668582, -0.0051117162220180035, -0.006778900045901537, 0.007627000100910664, 0.02208551950752735, 6.239100184757262e-05, 0.024754729121923447, 0.009131782688200474, 0.03345170617103577, -0.01667618192732334, 0.01123057957738638, 0.010675905272364616, -0.003540836041793227, -0.023354532197117805, 6.0164649767102674e-05, 0.005651636514812708, 0.01330278068780899, 0.01224601548165083, -0.0023031197488307953, 0.013889557681977749, -0.009455389343202114, 0.005207657348364592, -0.0004869376716669649, -0.0002629452501423657, 0.022668030112981796, -0.00224778288975358, 0.005080061964690685, -0.01594638079404831, 0.0019440384348854423], [0.00242552999407053, -0.010259467177093029, 0.0061836023814976215, -0.005029548890888691, 0.0026444399263709784, -0.005497741047292948, 0.012656930834054947, 0.045250922441482544, -0.006223621312528849, 0.010211109183728695, 0.002920055529102683, -0.023348208516836166, -0.012790501117706299, 0.0035337056033313274, -0.01106208749115467, -0.001438227598555386, -0.018422335386276245, -0.0008721086196601391, -0.019195780158042908, 0.021123073995113373, -0.004021337255835533, -0.010580532252788544, -0.014001692645251751, -0.003596309805288911, -0.008512765169143677, -0.0063315690495073795, -0.0007471691351383924, 0.00512645673006773, 0.011342235840857029, 0.017329782247543335, -0.00633577536791563, -0.0011943720746785402], [-0.021199485287070274, -0.007692959625273943, 0.007429075427353382, 0.002094870200380683, -0.007546129636466503, 0.039505455642938614, 0.02860875613987446, 0.03265630081295967, -0.009518842212855816, 0.024079101160168648, 0.007944014854729176, -0.01268199272453785, -0.0008647502399981022, 0.023417498916387558, 0.0151946060359478, 0.0019498664187267423, -0.022926969453692436, -0.0038867180701345205, 0.007166917435824871, 0.014054699800908566, -0.00555995712056756, -0.01578671485185623, 0.027190662920475006, 0.0010120305232703686, 0.04108232259750366, -0.01767078787088394, -0.0068713282234966755, 0.008488000370562077, 0.01029543299227953, 0.011417781002819538, -0.027074331417679787, -0.004997578915208578], [-0.08755619078874588, -0.053417377173900604, 0.023992227390408516, -0.04042167589068413, 0.015734955668449402, 0.17242786288261414, -0.07019949704408646, 0.06787753850221634, -0.09618201851844788, 0.04078719764947891, 0.033256445080041885, -0.12367424368858337, 0.01986481249332428, 0.04159928485751152, 0.178108349442482, 0.07520478963851929, 0.1516726016998291, 0.018843472003936768, -0.02733643352985382, -0.25054502487182617, -0.11197084933519363, -0.06436587125062943, 0.1413581222295761, -0.04608267545700073, 0.3843163251876831, 0.0011265394277870655, 0.03360848128795624, 0.026684723794460297, 0.05527006834745407, 0.16530318558216095, 0.14348863065242767, -0.02862471155822277], [-0.00925672147423029, -0.016105566173791885, 0.03721053898334503, -0.022460155189037323, 0.0003783272113651037, -0.0006429220666177571, 0.09715019911527634, 0.08655741810798645, 0.037661075592041016, 0.12839922308921814, 0.03892919793725014, -0.06786055117845535, -0.10554710030555725, 0.08354555815458298, -0.10623519122600555, -0.05188465863466263, -0.13591693341732025, -0.02378060854971409, -0.044037528336048126, 0.09817801415920258, -0.05635122209787369, -0.025847449898719788, 0.03583579882979393, -0.09234397113323212, -0.2100936621427536, -0.07031093537807465, -0.016841085627675056, 0.07437955588102341, 0.09645861387252808, 0.010928206145763397, -0.0964684709906578, -0.0022756042890250683], [-0.00938682071864605, -0.07135017961263657, 0.032393936067819595, -0.06869405508041382, 0.009355727583169937, 0.028325460851192474, 0.077912837266922, 0.1711580753326416, -0.04197803512215614, 0.10803515464067459, 0.03907686471939087, -0.03188469633460045, -0.0980331301689148, 0.019490104168653488, 0.0876711755990982, 0.009338424541056156, -0.08449487388134003, 0.021711185574531555, -0.03512435033917427, 0.07288883626461029, -0.025189131498336792, -0.051807232201099396, 0.08740932494401932, -0.14730015397071838, 0.08391766250133514, -0.028801489621400833, 0.011114321649074554, 0.07181913405656815, 0.13413187861442566, 0.12677712738513947, 0.0006787637248635292, -0.008632522076368332], [0.0008939538383856416, -0.005180799402296543, -0.0010941234650090337, -0.006137097720056772, -9.905124898068607e-05, 0.00475136237218976, -0.003673167433589697, 0.01865096390247345, -0.005313326604664326, 0.010386251844465733, 0.0025889985263347626, 0.013610386289656162, -0.008456381037831306, -0.0006645892863161862, 0.01702611707150936, -0.0015880868304520845, -1.834303475334309e-05, 0.0029487579595297575, 0.0016525934915989637, 0.00793136190623045, 0.00976521521806717, -0.002160326112061739, 0.006222397089004517, -0.01536571141332388, 0.017046647146344185, 0.004543135408312082, 4.5124030293663964e-05, 0.007776360493153334, -0.004791710060089827, 0.013593839481472969, -0.0030426806770265102, 0.001653736806474626]], "lstm.bias_ih_l0": [0.1621139496564865, 0.08480227738618851, 0.07111111283302307, 0.14058567583560944, -0.06833779811859131, 0.3324769139289856, 0.12239854782819748, -0.032232560217380524, 0.11747845262289047, 0.15124639868736267, 0.05160519853234291, 0.30451977252960205, 0.11853321641683578, 0.33542439341545105, 0.5780844688415527, 0.2518778443336487, 0.16799715161323547, 0.10757873952388763, -0.04127378389239311, 0.33131903409957886, 0.2717629373073578, 0.18297043442726135, 0.2614828050136566, 0.11350057274103165, 1.0201512575149536, 0.07385119050741196, 0.1031738668680191, 0.03412332385778427, 0.16893985867500305, 0.3948553204536438, 0.5088644623756409, 0.0674341693520546, 0.08437816053628922, 0.003222120925784111, -0.020577287301421165, -0.05763852968811989, 0.06415329873561859, -0.08827515691518784, -0.07810480147600174, 0.14610949158668518, -0.023943880572915077, -0.10937485098838806, -0.030056854709982872, 0.0776858925819397, 0.06756211817264557, -0.13895399868488312, -0.3123404085636139, 0.002552086254581809, 0.18861599266529083, -0.0455329492688179, 0.08243289589881897, -0.1656956970691681, -0.12237274646759033, 0.1476423293352127, -0.07848548144102097, -0.027377409860491753, -0.24680228531360626, -0.03625841066241264, 0.013802850618958473, 0.018991388380527496, 0.01659759134054184, 0.0119874132797122, -0.2582342028617859, -0.010882866568863392, 0.17320269346237183, -0.015211268328130245, 0.11684586107730865, -0.14044535160064697, 0.12064842879772186, -0.10451994836330414, 0.09030584990978241, 0.16726794838905334, 0.07209950685501099, 0.04621906578540802, -0.07412444800138474, -0.06611531227827072, 0.015439805574715137, 0.1230202317237854, 0.041937727481126785, -0.07373715192079544, -0.17661842703819275, -0.07626630365848541, -0.04685278236865997, 0.10003769397735596, -0.12730300426483154, -0.02880033664405346, 0.16932743787765503, -0.17446592450141907, 0.015012051910161972, 0.12070490419864655, 0.15537235140800476, 0.1323005110025406, -0.013358820229768753, 0.13407352566719055, 0.014860816299915314, 0.026303619146347046, 0.04599100723862648, 0.001830073888413608, 0.003225244116038084, 0.06252527981996536, -0.04092707112431526, 0.388821542263031, 0.20320700109004974, 0.13960598409175873, 0.14465096592903137, 0.24406953155994415, 0.062112633138895035, 0.10655785351991653, 0.19471882283687592, 0.2894781529903412, 0.5170150995254517, 0.07875722646713257, 0.29398614168167114, -0.057539768517017365, 0.08941188454627991, 0.22918781638145447, 0.34322482347488403, -0.024459701031446457, 0.05991235375404358, 0.16925948858261108, 0.7309974431991577, -0.04735740274190903, 0.09207358956336975, 0.05996248871088028, 0.13732567429542542, 0.41645410656929016, 0.5045795440673828, 0.013075605034828186], "lstm.bias_hh_l0": [0.18821226060390472, 0.09864507615566254, -0.0017518749227747321, 0.07018972933292389, -0.0611102320253849, 0.41577252745628357, 0.05402765050530434, 0.12910962104797363, 0.18652375042438507, 0.045321278274059296, 0.015663838014006615, 0.3095700144767761, -0.09149771183729172, 0.24965517222881317, 0.5539829730987549, 0.023921627551317215, 0.1603063941001892, 0.12021801620721817, 0.10259231179952621, 0.23879551887512207, 0.23586250841617584, 0.025900525972247124, 0.30806824564933777, 0.13473448157310486, 0.9894107580184937, 0.007893827743828297, 0.04987464100122452, 0.09149959683418274, 0.2184816151857376, 0.4620872735977173, 0.49124476313591003, 0.1211734265089035, 0.06924740225076675, -0.12981833517551422, 0.0008322153007611632, -0.0762036070227623, 0.0022896151058375835, -0.15324699878692627, 0.08652422577142715, -0.006304614711552858, 0.11202796548604965, 0.1276695281267166, 0.02991536259651184, -0.05793651193380356, 0.13199260830879211, -0.2446146458387375, -0.3108932077884674, 0.1526709645986557, 0.08576443046331406, 0.03978285193443298, 0.18907585740089417, 0.014218023046851158, -0.022906215861439705, 0.05594654008746147, 0.10373709350824356, 0.1469632387161255, -0.19178509712219238, 0.03107623942196369, 0.01706269383430481, -0.055034901946783066, -0.005701172631233931, -0.032313015311956406, -0.20130304992198944, -0.06417255103588104, -0.06074289232492447, -0.15710783004760742, -0.02734040841460228, 0.0006358498940244317, -0.07226824760437012, -0.0998210608959198, 0.008245638571679592, 0.2073960304260254, -0.17385172843933105, -0.02768845483660698, 0.16639313101768494, 0.04625836759805679, -0.18049684166908264, -0.06345078349113464, 0.23036983609199524, 0.0786316990852356, -0.08252698183059692, 0.060853298753499985, -0.05124019458889961, 0.04755924642086029, 0.1383347362279892, -0.11243986338376999, -0.13931167125701904, -0.22478635609149933, -0.02733726240694523, -0.11116259545087814, -0.08683747798204422, 0.0698561891913414, 0.012552951462566853, 0.15359841287136078, -0.10959892719984055, 0.03616538271307945, 0.060484614223241806, 0.030235905200242996, -0.032667361199855804, 0.03316904976963997, 0.002341355662792921, 0.30373862385749817, 0.15667776763439178, 0.07784786820411682, 0.06444393843412399, 0.09668006002902985, 0.041471321135759354, 0.29453039169311523, 0.05452825129032135, 0.2926301956176758, 0.5052047967910767, 0.2188279777765274, 0.21937283873558044, 0.11559534072875977, -0.01639018952846527, 0.23686639964580536, 0.42870813608169556, 0.00033139099832624197, 0.1102076917886734, -0.019924132153391838, 0.6462959051132202, 0.13515037298202515, 0.16967108845710754, 0.0022504315711557865, 0.0850900188088417, 0.41780176758766174, 0.4897303581237793, 0.08183871954679489], "dense.weight": [[0.1994776576757431, 0.02320672944188118, -0.005757579579949379, 0.1930774599313736, -0.21858927607536316, -0.4398937225341797, -0.24096959829330444, -0.16691523790359497, 0.2754080295562744, 0.40361014008522034, 0.29198670387268066, -0.2800784707069397, -0.23208634555339813, 0.13972453773021698, 0.7492052912712097, -0.1853259950876236, -0.12688708305358887, -0.09425537288188934, 0.18024851381778717, -0.6050410866737366, -0.4104844927787781, 0.03800050914287567, -0.4545421600341797, 0.15297923982143402, -1.4237008094787598, -0.060575131326913834, -0.04000506550073624, 0.1380240023136139, 0.2904967963695526, 0.10757921636104584, 0.40766021609306335, -0.10410603135824203]], "dense.bias": [0.04061722010374069]}